<?xml version="1.0"?>
<opencv_storage>
<cascade>
  <stageType>BOOST</stageType>
  <featureType>HAAR</featureType>
  <height>20</height>
  <width>20</width>
  <stageParams>
    <boostType>GAB</boostType>
    <minHitRate>9.9900001287460327e-01</minHitRate>
    <maxFalseAlarm>5.0000000000000000e-01</maxFalseAlarm>
    <weightTrimRate>9.4999999999999996e-01</weightTrimRate>
    <maxDepth>1</maxDepth>
    <maxWeakCount>100</maxWeakCount></stageParams>
  <featureParams>
    <maxCatCount>0</maxCatCount>
    <featSize>1</featSize>
    <mode>ALL</mode></featureParams>
  <stageNum>20</stageNum>
  <stages>
    <!-- stage 0 -->
    <_>
      <maxWeakCount>32</maxWeakCount>
      <stageThreshold>-1.2976359128952026e+00</stageThreshold>
      <weakClassifiers>
        <_>
          <internalNodes>
            0 -1 35 -3.2205647230148315e-01</internalNodes>
          <leafValues>
            -6.7187500000000000e-01 3.3016303181648254e-01</leafValues></_>
        <_>
          <internalNodes>
            0 -1 653 9.8040339071303606e-04</internalNodes>
          <leafValues>
            -1.4439323544502258e-01 4.8172831535339355e-01</leafValues></_>
        <_>
          <internalNodes>
            0 -1 653 -5.8434496168047190e-04</internalNodes>
          <leafValues>
            3.9624717831611633e-01 -1.9493241608142853e-01</leafValues></_>
        <_>
          <internalNodes>
            0 -1 691 -1.3588785659521818e-03</internalNodes>
          <leafValues>
            4.8227411508560181e-01 -1.5674738585948944e-01</leafValues></_>
        <_>
          <internalNodes>
            0 -1 691 3.8223568117246032e-04</internalNodes>
          <leafValues>
            -2.5532540678977966e-01 3.2282158732414246e-01</leafValues></_>
        <_>
          <internalNodes>
            0 -1 329 -1.1083872988820076e-02</internalNodes>
          <leafValues>
            6.6175282001495361e-01 -6.0834482312202454e-02</leafValues></_>
        <_>
          <internalNodes>
            0 -1 827 1.1062079574912786e-03</internalNodes>
          <leafValues>
            -1.5621173381805420e-01 4.0463691949844360e-01</leafValues></_>
        <_>
          <internalNodes>
            0 -1 827 -1.0591957252472639e-03</internalNodes>
          <leafValues>
            3.3072823286056519e-01 -1.9278419017791748e-01</leafValues></_>
        <_>
          <internalNodes>
            0 -1 870 2.1984404884278774e-03</internalNodes>
          <leafValues>
            -9.1295860707759857e-02 5.4022181034088135e-01</leafValues></_>
        <_>
          <internalNodes>
            0 -1 870 -1.4534678775817156e-03</internalNodes>
          <leafValues>
            4.1214105486869812e-01 -1.5568809211254120e-01</leafValues></_>
        <_>
          <internalNodes>
            0 -1 52 -4.7833216376602650e-03</internalNodes>
          <leafValues>
            3.8166046142578125e-01 -1.4047516882419586e-01</leafValues></_>
        <_>
          <internalNodes>
            0 -1 581 2.0875889807939529e-02</internalNodes>
          <leafValues>
            -1.2801297008991241e-01 4.5546287298202515e-01</leafValues></_>
        <_>
          <internalNodes>
            0 -1 407 -1.1373426765203476e-02</internalNodes>
          <leafValues>
            4.0615725517272949e-01 -1.2842249870300293e-01</leafValues></_>
        <_>
          <internalNodes>
            0 -1 568 2.7422667481005192e-03</internalNodes>
          <leafValues>
            -8.2681357860565186e-02 5.3720891475677490e-01</leafValues></_>
        <_>
          <internalNodes>
            0 -1 255 -3.1592804007232189e-03</internalNodes>
          <leafValues>
            5.1478880643844604e-01 -8.0640554428100586e-02</leafValues></_>
        <_>
          <internalNodes>
            0 -1 500 -2.2448240779340267e-03</internalNodes>
          <leafValues>
            4.6448153257369995e-01 -1.3187457621097565e-01</leafValues></_>
        <_>
          <internalNodes>
            0 -1 683 2.8220461681485176e-03</internalNodes>
          <leafValues>
            -8.8551566004753113e-02 5.2124291658401489e-01</leafValues></_>
        <_>
          <internalNodes>
            0 -1 500 8.6588121484965086e-04</internalNodes>
          <leafValues>
            -1.4860436320304871e-01 3.2603508234024048e-01</leafValues></_>
        <_>
          <internalNodes>
            0 -1 673 6.5822444856166840e-02</internalNodes>
          <leafValues>
            5.8739643543958664e-02 -9.4443976879119873e-01</leafValues></_>
        <_>
          <internalNodes>
            0 -1 985 -2.0797780156135559e-01</internalNodes>
          <leafValues>
            -7.7527588605880737e-01 4.8338487744331360e-02</leafValues></_>
        <_>
          <internalNodes>
            0 -1 41 8.7400898337364197e-03</internalNodes>
          <leafValues>
            -1.1532820016145706e-01 4.9629646539688110e-01</leafValues></_>
        <_>
          <internalNodes>
            0 -1 170 -4.4119264930486679e-03</internalNodes>
          <leafValues>
            3.5006582736968994e-01 -1.5528064966201782e-01</leafValues></_>
        <_>
          <internalNodes>
            0 -1 194 6.8246396258473396e-03</internalNodes>
          <leafValues>
            -1.2953670322895050e-01 3.8723251223564148e-01</leafValues></_>
        <_>
          <internalNodes>
            0 -1 186 -5.0777010619640350e-03</internalNodes>
          <leafValues>
            3.9071217179298401e-01 -1.2388715147972107e-01</leafValues></_>
        <_>
          <internalNodes>
            0 -1 837 -4.0397644042968750e-03</internalNodes>
          <leafValues>
            5.2237766981124878e-01 -9.9001236259937286e-02</leafValues></_>
        <_>
          <internalNodes>
            0 -1 337 8.2055613398551941e-02</internalNodes>
          <leafValues>
            -6.7276500165462494e-02 6.3681709766387939e-01</leafValues></_>
        <_>
          <internalNodes>
            0 -1 824 -2.7380189858376980e-03</internalNodes>
          <leafValues>
            4.3738991022109985e-01 -1.1479160934686661e-01</leafValues></_>
        <_>
          <internalNodes>
            0 -1 698 2.0248610526323318e-03</internalNodes>
          <leafValues>
            -1.0273328423500061e-01 4.6776670217514038e-01</leafValues></_>
        <_>
          <internalNodes>
            0 -1 252 -1.7830476164817810e-01</internalNodes>
          <leafValues>
            5.3277188539505005e-01 -9.3190602958202362e-02</leafValues></_>
        <_>
          <internalNodes>
            0 -1 834 -6.1193616129457951e-03</internalNodes>
          <leafValues>
            6.0832673311233521e-01 -7.7933348715305328e-02</leafValues></_>
        <_>
          <internalNodes>
            0 -1 226 2.0276918075978756e-03</internalNodes>
          <leafValues>
            -1.3746726512908936e-01 3.3894151449203491e-01</leafValues></_>
        <_>
          <internalNodes>
            0 -1 450 2.2640586830675602e-03</internalNodes>
          <leafValues>
            -1.1676971614360809e-01 4.1485080122947693e-01</leafValues></_></weakClassifiers></_>
    <!-- stage 1 -->
    <_>
      <maxWeakCount>44</maxWeakCount>
      <stageThreshold>-7.8684836626052856e-01</stageThreshold>
      <weakClassifiers>
        <_>
          <internalNodes>
            0 -1 510 1.3146735727787018e-01</internalNodes>
          <leafValues>
            3.0820995569229126e-01 -5.0877195596694946e-01</leafValues></_>
        <_>
          <internalNodes>
            0 -1 620 -1.4283064007759094e-01</internalNodes>
          <leafValues>
            -6.0998052358627319e-01 1.0663080960512161e-01</leafValues></_>
        <_>
          <internalNodes>
            0 -1 564 -2.7716853655874729e-03</internalNodes>
          <leafValues>
            4.2782485485076904e-01 -1.3184924423694611e-01</leafValues></_>
        <_>
          <internalNodes>
            0 -1 564 1.9132844172418118e-03</internalNodes>
          <leafValues>
            -1.1902286857366562e-01 4.1569390892982483e-01</leafValues></_>
        <_>
          <internalNodes>
            0 -1 577 3.4929111134260893e-03</internalNodes>
          <leafValues>
            -7.1110084652900696e-02 5.4585731029510498e-01</leafValues></_>
        <_>
          <internalNodes>
            0 -1 982 -2.2214410826563835e-02</internalNodes>
          <leafValues>
            -2.0304372906684875e-01 2.0119471848011017e-01</leafValues></_>
        <_>
          <internalNodes>
            0 -1 522 8.2123577594757080e-03</internalNodes>
          <leafValues>
            -1.0803765058517456e-01 5.0260442495346069e-01</leafValues></_>
        <_>
          <internalNodes>
            0 -1 648 4.6712514013051987e-03</internalNodes>
          <leafValues>
            -5.4354824125766754e-02 6.2836647033691406e-01</leafValues></_>
        <_>
          <internalNodes>
            0 -1 326 -7.6828032732009888e-02</internalNodes>
          <leafValues>
            -5.9822899103164673e-01 7.6918065547943115e-02</leafValues></_>
        <_>
          <internalNodes>
            0 -1 203 1.2190555781126022e-01</internalNodes>
          <leafValues>
            4.9751564860343933e-02 -6.0744994878768921e-01</leafValues></_>
        <_>
          <internalNodes>
            0 -1 147 -5.6379061192274094e-02</internalNodes>
          <leafValues>
            -5.1355463266372681e-01 6.5602436661720276e-02</leafValues></_>
        <_>
          <internalNodes>
            0 -1 722 -1.6599075170233846e-03</internalNodes>
          <leafValues>
            3.5861966013908386e-01 -1.1144314706325531e-01</leafValues></_>
        <_>
          <internalNodes>
            0 -1 596 -1.5989823266863823e-02</internalNodes>
          <leafValues>
            -4.4493398070335388e-01 8.5313074290752411e-02</leafValues></_>
        <_>
          <internalNodes>
            0 -1 891 1.0143131949007511e-02</internalNodes>
          <leafValues>
            1.0624665766954422e-01 -3.5093513131141663e-01</leafValues></_>
        <_>
          <internalNodes>
            0 -1 207 1.2696638703346252e-02</internalNodes>
          <leafValues>
            -7.5174942612648010e-02 5.4361724853515625e-01</leafValues></_>
        <_>
          <internalNodes>
            0 -1 438 -3.2759057357907295e-03</internalNodes>
          <leafValues>
            4.2602595686912537e-01 -7.6623514294624329e-02</leafValues></_>
        <_>
          <internalNodes>
            0 -1 684 3.1847045756876469e-03</internalNodes>
          <leafValues>
            -7.6113149523735046e-02 4.8521035909652710e-01</leafValues></_>
        <_>
          <internalNodes>
            0 -1 127 -8.9292135089635849e-03</internalNodes>
          <leafValues>
            4.3330112099647522e-01 -7.9322144389152527e-02</leafValues></_>
        <_>
          <internalNodes>
            0 -1 316 -1.2269802391529083e-02</internalNodes>
          <leafValues>
            4.6243357658386230e-01 -8.1216409802436829e-02</leafValues></_>
        <_>
          <internalNodes>
            0 -1 815 2.3723891936242580e-03</internalNodes>
          <leafValues>
            -8.9020587503910065e-02 4.0882179141044617e-01</leafValues></_>
        <_>
          <internalNodes>
            0 -1 814 4.8090461641550064e-03</internalNodes>
          <leafValues>
            -8.4293082356452942e-02 4.5155337452888489e-01</leafValues></_>
        <_>
          <internalNodes>
            0 -1 1002 2.6356179267168045e-02</internalNodes>
          <leafValues>
            6.6803529858589172e-02 -6.4909768104553223e-01</leafValues></_>
        <_>
          <internalNodes>
            0 -1 955 -2.6083723641932011e-03</internalNodes>
          <leafValues>
            4.6003800630569458e-01 -1.0021800547838211e-01</leafValues></_>
        <_>
          <internalNodes>
            0 -1 991 -2.0722741261124611e-02</internalNodes>
          <leafValues>
            -2.6278218626976013e-01 1.4105966687202454e-01</leafValues></_>
        <_>
          <internalNodes>
            0 -1 274 -4.8253494314849377e-03</internalNodes>
          <leafValues>
            6.7772358655929565e-01 -5.7719897478818893e-02</leafValues></_>
        <_>
          <internalNodes>
            0 -1 802 1.1399550735950470e-01</internalNodes>
          <leafValues>
            8.0662578344345093e-02 -4.6172630786895752e-01</leafValues></_>
        <_>
          <internalNodes>
            0 -1 879 -2.4382714182138443e-03</internalNodes>
          <leafValues>
            3.8019639253616333e-01 -9.2284277081489563e-02</leafValues></_>
        <_>
          <internalNodes>
            0 -1 1056 1.0391458636149764e-03</internalNodes>
          <leafValues>
            1.1075200140476227e-01 -3.2198002934455872e-01</leafValues></_>
        <_>
          <internalNodes>
            0 -1 175 -1.7556924372911453e-02</internalNodes>
          <leafValues>
            4.3179625272750854e-01 -9.0140759944915771e-02</leafValues></_>
        <_>
          <internalNodes>
            0 -1 546 1.6693029552698135e-02</internalNodes>
          <leafValues>
            -9.1742701828479767e-02 3.9818814396858215e-01</leafValues></_>
        <_>
          <internalNodes>
            0 -1 878 -1.1949473991990089e-03</internalNodes>
          <leafValues>
            2.8205341100692749e-01 -1.3312317430973053e-01</leafValues></_>
        <_>
          <internalNodes>
            0 -1 1012 5.2208499982953072e-03</internalNodes>
          <leafValues>
            -1.0277451574802399e-01 3.4438315033912659e-01</leafValues></_>
        <_>
          <internalNodes>
            0 -1 487 4.1674178093671799e-02</internalNodes>
          <leafValues>
            -1.2396502494812012e-01 3.1214863061904907e-01</leafValues></_>
        <_>
          <internalNodes>
            0 -1 600 -4.5195944607257843e-02</internalNodes>
          <leafValues>
            4.6139419078826904e-01 -7.9251587390899658e-02</leafValues></_>
        <_>
          <internalNodes>
            0 -1 704 -3.2205283641815186e-03</internalNodes>
          <leafValues>
            3.2283067703247070e-01 -1.2529334425926208e-01</leafValues></_>
        <_>
          <internalNodes>
            0 -1 142 -4.3748784810304642e-03</internalNodes>
          <leafValues>
            3.5773953795433044e-01 -1.0373445600271225e-01</leafValues></_>
        <_>
          <internalNodes>
            0 -1 183 2.7776751667261124e-02</internalNodes>
          <leafValues>
            9.8103985190391541e-02 -3.6973389983177185e-01</leafValues></_>
        <_>
          <internalNodes>
            0 -1 471 -3.3640466630458832e-02</internalNodes>
          <leafValues>
            -8.3165681362152100e-01 3.9830837398767471e-02</leafValues></_>
        <_>
          <internalNodes>
            0 -1 681 7.9178720712661743e-02</internalNodes>
          <leafValues>
            2.4415554478764534e-02 -9.4671642780303955e-01</leafValues></_>
        <_>
          <internalNodes>
            0 -1 1106 -5.5545819923281670e-03</internalNodes>
          <leafValues>
            3.0681303143501282e-01 -1.1388122290372849e-01</leafValues></_>
        <_>
          <internalNodes>
            0 -1 1117 -9.5275056082755327e-04</internalNodes>
          <leafValues>
            -3.5981625318527222e-01 1.2748025357723236e-01</leafValues></_>
        <_>
          <internalNodes>
            0 -1 133 7.4661998078227043e-03</internalNodes>
          <leafValues>
            -7.6456807553768158e-02 4.7072815895080566e-01</leafValues></_>
        <_>
          <internalNodes>
            0 -1 587 2.9131076298654079e-03</internalNodes>
          <leafValues>
            -7.0549406111240387e-02 4.6173197031021118e-01</leafValues></_>
        <_>
          <internalNodes>
            0 -1 309 -2.4151178076863289e-03</internalNodes>
          <leafValues>
            3.8155204057693481e-01 -8.5839264094829559e-02</leafValues></_></weakClassifiers></_>
    <!-- stage 2 -->
    <_>
      <maxWeakCount>46</maxWeakCount>
      <stageThreshold>-8.2740139961242676e-01</stageThreshold>
      <weakClassifiers>
        <_>
          <internalNodes>
            0 -1 413 -2.2425314784049988e-01</internalNodes>
          <leafValues>
            -5.7142859697341919e-01 2.9551452398300171e-01</leafValues></_>
        <_>
          <internalNodes>
            0 -1 354 -1.2541440129280090e-01</internalNodes>
          <leafValues>
            -4.1589862108230591e-01 1.3584291934967041e-01</leafValues></_>
        <_>
          <internalNodes>
            0 -1 814 -3.2392181456089020e-03</internalNodes>
          <leafValues>
            3.9252248406410217e-01 -1.0094652324914932e-01</leafValues></_>
        <_>
          <internalNodes>
            0 -1 815 -2.7429335750639439e-03</internalNodes>
          <leafValues>
            3.7840116024017334e-01 -1.2497404217720032e-01</leafValues></_>
        <_>
          <internalNodes>
            0 -1 875 4.0109725669026375e-03</internalNodes>
          <leafValues>
            -6.1532076448202133e-02 5.6223666667938232e-01</leafValues></_>
        <_>
          <internalNodes>
            0 -1 875 -1.3504207599908113e-03</internalNodes>
          <leafValues>
            3.0912721157073975e-01 -1.8925550580024719e-01</leafValues></_>
        <_>
          <internalNodes>
            0 -1 249 -5.0481617450714111e-02</internalNodes>
          <leafValues>
            -3.2890969514846802e-01 1.1273071914911270e-01</leafValues></_>
        <_>
          <internalNodes>
            0 -1 922 -2.5054151192307472e-03</internalNodes>
          <leafValues>
            3.6301344633102417e-01 -7.9178869724273682e-02</leafValues></_>
        <_>
          <internalNodes>
            0 -1 674 -1.1362686753273010e-02</internalNodes>
          <leafValues>
            6.8938356637954712e-01 -5.6476328521966934e-02</leafValues></_>
        <_>
          <internalNodes>
            0 -1 640 -8.8490755297243595e-04</internalNodes>
          <leafValues>
            2.5927916169166565e-01 -1.3595761358737946e-01</leafValues></_>
        <_>
          <internalNodes>
            0 -1 568 1.2287241406738758e-03</internalNodes>
          <leafValues>
            -1.3964410126209259e-01 2.9092434048652649e-01</leafValues></_>
        <_>
          <internalNodes>
            0 -1 574 2.8630923479795456e-02</internalNodes>
          <leafValues>
            7.9648986458778381e-02 -5.1670533418655396e-01</leafValues></_>
        <_>
          <internalNodes>
            0 -1 568 -1.5118630835786462e-03</internalNodes>
          <leafValues>
            2.9971286654472351e-01 -1.2531508505344391e-01</leafValues></_>
        <_>
          <internalNodes>
            0 -1 777 -4.6971600502729416e-02</internalNodes>
          <leafValues>
            -6.8094158172607422e-01 5.2149228751659393e-02</leafValues></_>
        <_>
          <internalNodes>
            0 -1 290 3.6436957307159901e-03</internalNodes>
          <leafValues>
            -7.0339754223823547e-02 4.8336297273635864e-01</leafValues></_>
        <_>
          <internalNodes>
            0 -1 586 -1.7629765206947923e-03</internalNodes>
          <leafValues>
            2.9871806502342224e-01 -1.0971640050411224e-01</leafValues></_>
        <_>
          <internalNodes>
            0 -1 934 -3.9969570934772491e-02</internalNodes>
          <leafValues>
            -6.6239142417907715e-01 5.5244266986846924e-02</leafValues></_>
        <_>
          <internalNodes>
            0 -1 214 5.1679359748959541e-03</internalNodes>
          <leafValues>
            -8.2943230867385864e-02 4.2544016242027283e-01</leafValues></_>
        <_>
          <internalNodes>
            0 -1 153 -6.4559832215309143e-02</internalNodes>
          <leafValues>
            -6.6182106733322144e-01 5.7083431631326675e-02</leafValues></_>
        <_>
          <internalNodes>
            0 -1 1065 8.0542061477899551e-03</internalNodes>
          <leafValues>
            -6.2688201665878296e-02 5.6097328662872314e-01</leafValues></_>
        <_>
          <internalNodes>
            0 -1 84 4.4754959642887115e-02</internalNodes>
          <leafValues>
            -7.2879061102867126e-02 4.6109628677368164e-01</leafValues></_>
        <_>
          <internalNodes>
            0 -1 664 -8.5772797465324402e-03</internalNodes>
          <leafValues>
            3.0748328566551208e-01 -1.1807521432638168e-01</leafValues></_>
        <_>
          <internalNodes>
            0 -1 634 6.0384891927242279e-02</internalNodes>
          <leafValues>
            5.6523513048887253e-02 -6.5061795711517334e-01</leafValues></_>
        <_>
          <internalNodes>
            0 -1 703 -2.2988279815763235e-03</internalNodes>
          <leafValues>
            3.4290504455566406e-01 -1.0133140534162521e-01</leafValues></_>
        <_>
          <internalNodes>
            0 -1 808 2.8399848379194736e-03</internalNodes>
          <leafValues>
            -7.7664524316787720e-02 4.2410439252853394e-01</leafValues></_>
        <_>
          <internalNodes>
            0 -1 495 5.5978926829993725e-03</internalNodes>
          <leafValues>
            1.6161295771598816e-01 -2.1289364993572235e-01</leafValues></_>
        <_>
          <internalNodes>
            0 -1 328 1.9122492522001266e-02</internalNodes>
          <leafValues>
            -4.6404916793107986e-02 7.1447110176086426e-01</leafValues></_>
        <_>
          <internalNodes>
            0 -1 2 1.5983148477971554e-04</internalNodes>
          <leafValues>
            1.6247554123401642e-01 -2.1291603147983551e-01</leafValues></_>
        <_>
          <internalNodes>
            0 -1 518 -2.4035614915192127e-03</internalNodes>
          <leafValues>
            3.9824816584587097e-01 -8.1817030906677246e-02</leafValues></_>
        <_>
          <internalNodes>
            0 -1 920 1.2636623578146100e-03</internalNodes>
          <leafValues>
            -1.0135583579540253e-01 3.0900430679321289e-01</leafValues></_>
        <_>
          <internalNodes>
            0 -1 311 8.1423427909612656e-03</internalNodes>
          <leafValues>
            5.3148999810218811e-02 -6.6063386201858521e-01</leafValues></_>
        <_>
          <internalNodes>
            0 -1 176 -5.2233627066016197e-03</internalNodes>
          <leafValues>
            5.1628333330154419e-01 -7.0547066628932953e-02</leafValues></_>
        <_>
          <internalNodes>
            0 -1 444 2.5229884777218103e-03</internalNodes>
          <leafValues>
            -7.6816305518150330e-02 3.8449820876121521e-01</leafValues></_>
        <_>
          <internalNodes>
            0 -1 1086 -4.0100396290654317e-05</internalNodes>
          <leafValues>
            2.0428036153316498e-01 -1.6605062782764435e-01</leafValues></_>
        <_>
          <internalNodes>
            0 -1 1094 7.3420512489974499e-03</internalNodes>
          <leafValues>
            -5.7118687778711319e-02 5.7885044813156128e-01</leafValues></_>
        <_>
          <internalNodes>
            0 -1 970 2.3313630372285843e-03</internalNodes>
          <leafValues>
            -7.5492709875106812e-02 4.2356514930725098e-01</leafValues></_>
        <_>
          <internalNodes>
            0 -1 405 7.2887539863586426e-04</internalNodes>
          <leafValues>
            1.1281063407659531e-01 -2.9175025224685669e-01</leafValues></_>
        <_>
          <internalNodes>
            0 -1 763 -1.1514883954077959e-03</internalNodes>
          <leafValues>
            2.3410630226135254e-01 -1.4952746033668518e-01</leafValues></_>
        <_>
          <internalNodes>
            0 -1 154 -3.4556221216917038e-03</internalNodes>
          <leafValues>
            -2.1754685044288635e-01 1.5958763659000397e-01</leafValues></_>
        <_>
          <internalNodes>
            0 -1 741 -2.8492156416177750e-02</internalNodes>
          <leafValues>
            -6.7181676626205444e-01 4.7785930335521698e-02</leafValues></_>
        <_>
          <internalNodes>
            0 -1 256 -5.5913802236318588e-02</internalNodes>
          <leafValues>
            -8.2479798793792725e-01 3.3685870468616486e-02</leafValues></_>
        <_>
          <internalNodes>
            0 -1 729 -1.4215433970093727e-02</internalNodes>
          <leafValues>
            4.7097170352935791e-01 -7.9791888594627380e-02</leafValues></_>
        <_>
          <internalNodes>
            0 -1 504 3.3682356588542461e-03</internalNodes>
          <leafValues>
            -9.0792283415794373e-02 3.9376026391983032e-01</leafValues></_>
        <_>
          <internalNodes>
            0 -1 282 -8.5656804731115699e-04</internalNodes>
          <leafValues>
            2.3532021045684814e-01 -1.4507605135440826e-01</leafValues></_>
        <_>
          <internalNodes>
            0 -1 697 5.5799968540668488e-03</internalNodes>
          <leafValues>
            -6.3166670501232147e-02 5.2365064620971680e-01</leafValues></_>
        <_>
          <internalNodes>
            0 -1 223 -3.1246453523635864e-02</internalNodes>
          <leafValues>
            -5.7392936944961548e-01 6.5953962504863739e-02</leafValues></_></weakClassifiers></_>
    <!-- stage 3 -->
    <_>
      <maxWeakCount>60</maxWeakCount>
      <stageThreshold>-8.6478096246719360e-01</stageThreshold>
      <weakClassifiers>
        <_>
          <internalNodes>
            0 -1 641 -2.6984573341906071e-03</internalNodes>
          <leafValues>
            5.9878420829772949e-01 1.5971675515174866e-01</leafValues></_>
        <_>
          <internalNodes>
            0 -1 916 4.5294589363038540e-03</internalNodes>
          <leafValues>
            -6.0104891657829285e-02 4.3051108717918396e-01</leafValues></_>
        <_>
          <internalNodes>
            0 -1 19 -2.2296678798738867e-04</internalNodes>
          <leafValues>
            -2.1905022859573364e-01 1.3602709770202637e-01</leafValues></_>
        <_>
          <internalNodes>
            0 -1 79 -7.7895984053611755e-02</internalNodes>
          <leafValues>
            -5.6365287303924561e-01 1.7160026356577873e-02</leafValues></_>
        <_>
          <internalNodes>
            0 -1 86 -3.0997383873909712e-03</internalNodes>
          <leafValues>
            4.5981955528259277e-01 -6.6761985421180725e-02</leafValues></_>
        <_>
          <internalNodes>
            0 -1 307 -4.4459745287895203e-02</internalNodes>
          <leafValues>
            -6.6808313131332397e-01 8.1187471747398376e-02</leafValues></_>
        <_>
          <internalNodes>
            0 -1 907 -3.0250861309468746e-03</internalNodes>
          <leafValues>
            3.5901015996932983e-01 -8.6857251822948456e-02</leafValues></_>
        <_>
          <internalNodes>
            0 -1 892 2.8619049116969109e-03</internalNodes>
          <leafValues>
            -8.2453042268753052e-02 4.5949259400367737e-01</leafValues></_>
        <_>
          <internalNodes>
            0 -1 672 -2.5070592761039734e-02</internalNodes>
          <leafValues>
            -4.2553961277008057e-01 7.3584318161010742e-02</leafValues></_>
        <_>
          <internalNodes>
            0 -1 601 -1.5661774203181267e-02</internalNodes>
          <leafValues>
            4.4362902641296387e-01 -6.9106817245483398e-02</leafValues></_>
        <_>
          <internalNodes>
            0 -1 641 2.2314395755529404e-03</internalNodes>
          <leafValues>
            -9.6295759081840515e-02 3.2492294907569885e-01</leafValues></_>
        <_>
          <internalNodes>
            0 -1 218 -3.4411165397614241e-03</internalNodes>
          <leafValues>
            5.4727113246917725e-01 -4.9483962357044220e-02</leafValues></_>
        <_>
          <internalNodes>
            0 -1 467 1.6774442046880722e-02</internalNodes>
          <leafValues>
            6.3231147825717926e-02 -5.6712180376052856e-01</leafValues></_>
        <_>
          <internalNodes>
            0 -1 819 -7.9432073980569839e-03</internalNodes>
          <leafValues>
            5.4533118009567261e-01 -5.9999406337738037e-02</leafValues></_>
        <_>
          <internalNodes>
            0 -1 295 -6.1080317944288254e-02</internalNodes>
          <leafValues>
            -4.3869096040725708e-01 7.8417062759399414e-02</leafValues></_>
        <_>
          <internalNodes>
            0 -1 843 -4.0210969746112823e-03</internalNodes>
          <leafValues>
            5.7305347919464111e-01 -5.7057611644268036e-02</leafValues></_>
        <_>
          <internalNodes>
            0 -1 324 -6.4395584166049957e-02</internalNodes>
          <leafValues>
            -4.0949490666389465e-01 8.2870155572891235e-02</leafValues></_>
        <_>
          <internalNodes>
            0 -1 73 -8.4359254688024521e-03</internalNodes>
          <leafValues>
            4.1102957725524902e-01 -7.7220343053340912e-02</leafValues></_>
        <_>
          <internalNodes>
            0 -1 473 -5.0440337508916855e-03</internalNodes>
          <leafValues>
            3.0129489302635193e-01 -9.4459109008312225e-02</leafValues></_>
        <_>
          <internalNodes>
            0 -1 178 -4.7940425574779510e-03</internalNodes>
          <leafValues>
            3.0215212702751160e-01 -9.4830416142940521e-02</leafValues></_>
        <_>
          <internalNodes>
            0 -1 244 -1.7090328037738800e-03</internalNodes>
          <leafValues>
            -3.1035271286964417e-01 1.0699003934860229e-01</leafValues></_>
        <_>
          <internalNodes>
            0 -1 823 -2.5609578005969524e-03</internalNodes>
          <leafValues>
            3.4159627556800842e-01 -8.6628176271915436e-02</leafValues></_>
        <_>
          <internalNodes>
            0 -1 201 5.4129259660840034e-03</internalNodes>
          <leafValues>
            -3.5957127809524536e-02 7.2625374794006348e-01</leafValues></_>
        <_>
          <internalNodes>
            0 -1 367 2.8101947158575058e-02</internalNodes>
          <leafValues>
            7.6072543859481812e-02 -4.2535692453384399e-01</leafValues></_>
        <_>
          <internalNodes>
            0 -1 1134 6.2632648041471839e-04</internalNodes>
          <leafValues>
            1.1013834178447723e-01 -2.7058100700378418e-01</leafValues></_>
        <_>
          <internalNodes>
            0 -1 989 3.2647401094436646e-03</internalNodes>
          <leafValues>
            -6.4546383917331696e-02 5.0324100255966187e-01</leafValues></_>
        <_>
          <internalNodes>
            0 -1 559 3.6855012178421021e-02</internalNodes>
          <leafValues>
            8.4523238241672516e-02 -3.4660938382148743e-01</leafValues></_>
        <_>
          <internalNodes>
            0 -1 539 -6.0093350708484650e-02</internalNodes>
          <leafValues>
            -9.1977888345718384e-01 2.7587622404098511e-02</leafValues></_>
        <_>
          <internalNodes>
            0 -1 371 3.7009315565228462e-03</internalNodes>
          <leafValues>
            -1.3292531669139862e-01 2.3023881018161774e-01</leafValues></_>
        <_>
          <internalNodes>
            0 -1 57 -2.8657312504947186e-03</internalNodes>
          <leafValues>
            4.7258493304252625e-01 -5.9206962585449219e-02</leafValues></_>
        <_>
          <internalNodes>
            0 -1 757 -7.7464487403631210e-03</internalNodes>
          <leafValues>
            3.2156050205230713e-01 -8.4403492510318756e-02</leafValues></_>
        <_>
          <internalNodes>
            0 -1 1101 -5.2331015467643738e-03</internalNodes>
          <leafValues>
            6.7695575952529907e-01 -4.0767699480056763e-02</leafValues></_>
        <_>
          <internalNodes>
            0 -1 74 -4.8210844397544861e-02</internalNodes>
          <leafValues>
            -4.5390459895133972e-01 6.8305097520351410e-02</leafValues></_>
        <_>
          <internalNodes>
            0 -1 80 1.0087609291076660e-02</internalNodes>
          <leafValues>
            -1.6156369447708130e-01 1.9275856018066406e-01</leafValues></_>
        <_>
          <internalNodes>
            0 -1 587 4.1585946455597878e-03</internalNodes>
          <leafValues>
            -5.7265035808086395e-02 5.0250726938247681e-01</leafValues></_>
        <_>
          <internalNodes>
            0 -1 533 -2.8650988824665546e-03</internalNodes>
          <leafValues>
            -2.8359493613243103e-01 1.0083286464214325e-01</leafValues></_>
        <_>
          <internalNodes>
            0 -1 771 2.1263626404106617e-03</internalNodes>
          <leafValues>
            -1.1349733173847198e-01 2.4976180493831635e-01</leafValues></_>
        <_>
          <internalNodes>
            0 -1 653 6.6367536783218384e-04</internalNodes>
          <leafValues>
            -1.3044038414955139e-01 2.1988806128501892e-01</leafValues></_>
        <_>
          <internalNodes>
            0 -1 961 -1.8362760543823242e-02</internalNodes>
          <leafValues>
            -5.5124276876449585e-01 5.5615257471799850e-02</leafValues></_>
        <_>
          <internalNodes>
            0 -1 469 -7.9010799527168274e-03</internalNodes>
          <leafValues>
            2.8502458333969116e-01 -1.0407242923974991e-01</leafValues></_>
        <_>
          <internalNodes>
            0 -1 1056 -9.3106745043769479e-04</internalNodes>
          <leafValues>
            -2.8819108009338379e-01 9.6851579844951630e-02</leafValues></_>
        <_>
          <internalNodes>
            0 -1 730 1.0642521083354950e-02</internalNodes>
          <leafValues>
            -6.4352519810199738e-02 4.4972610473632812e-01</leafValues></_>
        <_>
          <internalNodes>
            0 -1 53 4.3744845315814018e-03</internalNodes>
          <leafValues>
            -8.6788199841976166e-02 3.1544291973114014e-01</leafValues></_>
        <_>
          <internalNodes>
            0 -1 720 -2.6951110921800137e-03</internalNodes>
          <leafValues>
            2.6075318455696106e-01 -1.1222688853740692e-01</leafValues></_>
        <_>
          <internalNodes>
            0 -1 1070 -2.1350572933442891e-04</internalNodes>
          <leafValues>
            -1.7841345071792603e-01 1.6868139803409576e-01</leafValues></_>
        <_>
          <internalNodes>
            0 -1 1037 2.0870119333267212e-02</internalNodes>
          <leafValues>
            7.6432257890701294e-02 -3.5456430912017822e-01</leafValues></_>
        <_>
          <internalNodes>
            0 -1 959 -1.8747043795883656e-03</internalNodes>
          <leafValues>
            2.3301711678504944e-01 -1.3335272669792175e-01</leafValues></_>
        <_>
          <internalNodes>
            0 -1 562 -3.2375587616115808e-03</internalNodes>
          <leafValues>
            4.1317877173423767e-01 -6.4485765993595123e-02</leafValues></_>
        <_>
          <internalNodes>
            0 -1 1095 2.8107775142416358e-04</internalNodes>
          <leafValues>
            1.4120018482208252e-01 -2.1519415080547333e-01</leafValues></_>
        <_>
          <internalNodes>
            0 -1 945 2.1145831793546677e-02</internalNodes>
          <leafValues>
            3.8685988634824753e-02 -7.1159350872039795e-01</leafValues></_>
        <_>
          <internalNodes>
            0 -1 519 3.7147412076592445e-03</internalNodes>
          <leafValues>
            -6.7549280822277069e-02 4.2573580145835876e-01</leafValues></_>
        <_>
          <internalNodes>
            0 -1 534 -4.1219397098757327e-04</internalNodes>
          <leafValues>
            -2.5272297859191895e-01 1.1645305901765823e-01</leafValues></_>
        <_>
          <internalNodes>
            0 -1 499 -5.1630740053951740e-03</internalNodes>
          <leafValues>
            4.3980523943901062e-01 -7.5583845376968384e-02</leafValues></_>
        <_>
          <internalNodes>
            0 -1 328 8.4292944520711899e-03</internalNodes>
          <leafValues>
            -8.3169355988502502e-02 3.7611711025238037e-01</leafValues></_>
        <_>
          <internalNodes>
            0 -1 734 4.2998269200325012e-03</internalNodes>
          <leafValues>
            -6.6720239818096161e-02 4.4418656826019287e-01</leafValues></_>
        <_>
          <internalNodes>
            0 -1 793 -1.7232045531272888e-02</internalNodes>
          <leafValues>
            5.1662528514862061e-01 -5.4645214229822159e-02</leafValues></_>
        <_>
          <internalNodes>
            0 -1 410 -5.9753507375717163e-03</internalNodes>
          <leafValues>
            3.1436023116111755e-01 -9.6013486385345459e-02</leafValues></_>
        <_>
          <internalNodes>
            0 -1 221 -1.7168624326586723e-02</internalNodes>
          <leafValues>
            6.7775923013687134e-01 -3.9728391915559769e-02</leafValues></_>
        <_>
          <internalNodes>
            0 -1 829 4.2958017438650131e-03</internalNodes>
          <leafValues>
            -8.1612579524517059e-02 3.2852634787559509e-01</leafValues></_>
        <_>
          <internalNodes>
            0 -1 818 -4.9393582157790661e-03</internalNodes>
          <leafValues>
            2.9471147060394287e-01 -1.0780351608991623e-01</leafValues></_></weakClassifiers></_>
    <!-- stage 4 -->
    <_>
      <maxWeakCount>66</maxWeakCount>
      <stageThreshold>-8.6107206344604492e-01</stageThreshold>
      <weakClassifiers>
        <_>
          <internalNodes>
            0 -1 224 -4.5443128794431686e-02</internalNodes>
          <leafValues>
            -4.3999999761581421e-01 2.8393441438674927e-01</leafValues></_>
        <_>
          <internalNodes>
            0 -1 862 8.8560599833726883e-03</internalNodes>
          <leafValues>
            -4.8515433445572853e-03 8.2836747169494629e-01</leafValues></_>
        <_>
          <internalNodes>
            0 -1 765 6.7492313683032990e-03</internalNodes>
          <leafValues>
            -5.8127522468566895e-02 5.9276193380355835e-01</leafValues></_>
        <_>
          <internalNodes>
            0 -1 955 -1.9296481041237712e-03</internalNodes>
          <leafValues>
            2.3065064847469330e-01 -1.4391620457172394e-01</leafValues></_>
        <_>
          <internalNodes>
            0 -1 478 -1.4404518529772758e-02</internalNodes>
          <leafValues>
            4.3799731135368347e-01 -2.8442021459341049e-02</leafValues></_>
        <_>
          <internalNodes>
            0 -1 680 -9.4113638624548912e-03</internalNodes>
          <leafValues>
            -4.4598469138145447e-01 5.0309166312217712e-02</leafValues></_>
        <_>
          <internalNodes>
            0 -1 926 -4.8923143185675144e-03</internalNodes>
          <leafValues>
            4.5093065500259399e-01 -5.2969746291637421e-02</leafValues></_>
        <_>
          <internalNodes>
            0 -1 241 8.2405079156160355e-03</internalNodes>
          <leafValues>
            -6.6789075732231140e-02 4.4441536068916321e-01</leafValues></_>
        <_>
          <internalNodes>
            0 -1 305 2.9947668313980103e-02</internalNodes>
          <leafValues>
            -8.9795768260955811e-02 2.8602391481399536e-01</leafValues></_>
        <_>
          <internalNodes>
            0 -1 582 -3.6575734615325928e-02</internalNodes>
          <leafValues>
            -4.5310655236244202e-01 7.6292693614959717e-02</leafValues></_>
        <_>
          <internalNodes>
            0 -1 833 2.2111341822892427e-03</internalNodes>
          <leafValues>
            -8.7871439754962921e-02 3.2472038269042969e-01</leafValues></_>
        <_>
          <internalNodes>
            0 -1 815 -3.4226835705339909e-03</internalNodes>
          <leafValues>
            3.6006587743759155e-01 -8.1336386501789093e-02</leafValues></_>
        <_>
          <internalNodes>
            0 -1 31 4.6569522470235825e-02</internalNodes>
          <leafValues>
            -1.1158555001020432e-01 2.4234130978584290e-01</leafValues></_>
        <_>
          <internalNodes>
            0 -1 1125 -3.5172171890735626e-02</internalNodes>
          <leafValues>
            4.6275040507316589e-01 -5.7919081300497055e-02</leafValues></_>
        <_>
          <internalNodes>
            0 -1 1001 -3.0014787334948778e-03</internalNodes>
          <leafValues>
            3.8519492745399475e-01 -6.4221426844596863e-02</leafValues></_>
        <_>
          <internalNodes>
            0 -1 291 9.9178347736597061e-03</internalNodes>
          <leafValues>
            6.1196759343147278e-02 -4.5262548327445984e-01</leafValues></_>
        <_>
          <internalNodes>
            0 -1 360 3.4443703480064869e-03</internalNodes>
          <leafValues>
            -5.9973843395709991e-02 4.1671115159988403e-01</leafValues></_>
        <_>
          <internalNodes>
            0 -1 863 -5.4546624422073364e-02</internalNodes>
          <leafValues>
            -6.5410363674163818e-01 4.3892581015825272e-02</leafValues></_>
        <_>
          <internalNodes>
            0 -1 844 2.0401703659445047e-04</internalNodes>
          <leafValues>
            1.3372062146663666e-01 -1.9509017467498779e-01</leafValues></_>
        <_>
          <internalNodes>
            0 -1 24 -7.8096764627844095e-04</internalNodes>
          <leafValues>
            -2.1731702983379364e-01 1.2400499731302261e-01</leafValues></_>
        <_>
          <internalNodes>
            0 -1 929 7.9336911439895630e-03</internalNodes>
          <leafValues>
            5.7908412069082260e-02 -4.4565331935882568e-01</leafValues></_>
        <_>
          <internalNodes>
            0 -1 297 1.7679158598184586e-02</internalNodes>
          <leafValues>
            -7.1256712079048157e-02 3.8771310448646545e-01</leafValues></_>
        <_>
          <internalNodes>
            0 -1 335 -1.3447874784469604e-01</internalNodes>
          <leafValues>
            3.3573043346405029e-01 -8.1283926963806152e-02</leafValues></_>
        <_>
          <internalNodes>
            0 -1 497 -6.0709659010171890e-02</internalNodes>
          <leafValues>
            -6.5772950649261475e-01 4.8026219010353088e-02</leafValues></_>
        <_>
          <internalNodes>
            0 -1 632 1.4476109063252807e-03</internalNodes>
          <leafValues>
            -1.1270736902952194e-01 2.7269530296325684e-01</leafValues></_>
        <_>
          <internalNodes>
            0 -1 10 -3.7979904562234879e-02</internalNodes>
          <leafValues>
            7.6849931478500366e-01 -2.8765253722667694e-02</leafValues></_>
        <_>
          <internalNodes>
            0 -1 405 -1.2808674946427345e-03</internalNodes>
          <leafValues>
            -3.4434199333190918e-01 9.1879338026046753e-02</leafValues></_>
        <_>
          <internalNodes>
            0 -1 641 -1.4862283132970333e-03</internalNodes>
          <leafValues>
            2.4938744306564331e-01 -1.0767093300819397e-01</leafValues></_>
        <_>
          <internalNodes>
            0 -1 630 7.8545883297920227e-02</internalNodes>
          <leafValues>
            6.9009497761726379e-02 -3.9640066027641296e-01</leafValues></_>
        <_>
          <internalNodes>
            0 -1 401 -2.0821029320359230e-02</internalNodes>
          <leafValues>
            -4.9547594785690308e-01 4.8582941293716431e-02</leafValues></_>
        <_>
          <internalNodes>
            0 -1 603 -2.7589907869696617e-02</internalNodes>
          <leafValues>
            3.1243827939033508e-01 -8.7308607995510101e-02</leafValues></_>
        <_>
          <internalNodes>
            0 -1 34 3.7664867937564850e-02</internalNodes>
          <leafValues>
            -6.2880404293537140e-02 4.2933329939842224e-01</leafValues></_>
        <_>
          <internalNodes>
            0 -1 350 2.0325001329183578e-02</internalNodes>
          <leafValues>
            5.4542724043130875e-02 -5.6351780891418457e-01</leafValues></_>
        <_>
          <internalNodes>
            0 -1 187 8.8829286396503448e-02</internalNodes>
          <leafValues>
            -5.9808496385812759e-02 4.8638895153999329e-01</leafValues></_>
        <_>
          <internalNodes>
            0 -1 71 -2.9839048162102699e-02</internalNodes>
          <leafValues>
            -5.0268733501434326e-01 6.2679633498191833e-02</leafValues></_>
        <_>
          <internalNodes>
            0 -1 1019 3.0273277661763132e-04</internalNodes>
          <leafValues>
            1.0695606470108032e-01 -2.3851455748081207e-01</leafValues></_>
        <_>
          <internalNodes>
            0 -1 356 4.8727868124842644e-03</internalNodes>
          <leafValues>
            -4.8026368021965027e-02 5.4834097623825073e-01</leafValues></_>
        <_>
          <internalNodes>
            0 -1 544 -3.3960916101932526e-02</internalNodes>
          <leafValues>
            -6.5671730041503906e-01 4.7024343162775040e-02</leafValues></_>
        <_>
          <internalNodes>
            0 -1 1017 2.9591878410428762e-04</internalNodes>
          <leafValues>
            1.3671359419822693e-01 -2.0402808487415314e-01</leafValues></_>
        <_>
          <internalNodes>
            0 -1 637 -3.1095016747713089e-03</internalNodes>
          <leafValues>
            3.9096534252166748e-01 -6.7326977849006653e-02</leafValues></_>
        <_>
          <internalNodes>
            0 -1 523 -5.0106365233659744e-03</internalNodes>
          <leafValues>
            2.9880821704864502e-01 -9.1267690062522888e-02</leafValues></_>
        <_>
          <internalNodes>
            0 -1 466 -3.1878929585218430e-03</internalNodes>
          <leafValues>
            4.7922363877296448e-01 -6.0985542833805084e-02</leafValues></_>
        <_>
          <internalNodes>
            0 -1 724 6.0564011801034212e-04</internalNodes>
          <leafValues>
            1.7976617813110352e-01 -1.6144339740276337e-01</leafValues></_>
        <_>
          <internalNodes>
            0 -1 550 1.0288713499903679e-02</internalNodes>
          <leafValues>
            -2.8741389513015747e-02 8.2962602376937866e-01</leafValues></_>
        <_>
          <internalNodes>
            0 -1 639 -1.0291503742337227e-02</internalNodes>
          <leafValues>
            5.4247343540191650e-01 -4.2716920375823975e-02</leafValues></_>
        <_>
          <internalNodes>
            0 -1 395 -1.1019623838365078e-02</internalNodes>
          <leafValues>
            3.0938768386840820e-01 -8.2232892513275146e-02</leafValues></_>
        <_>
          <internalNodes>
            0 -1 491 -3.3318500965833664e-02</internalNodes>
          <leafValues>
            -8.5847377777099609e-01 3.2597094774246216e-02</leafValues></_>
        <_>
          <internalNodes>
            0 -1 458 6.7988513037562370e-03</internalNodes>
          <leafValues>
            -6.1965975910425186e-02 4.9293747544288635e-01</leafValues></_>
        <_>
          <internalNodes>
            0 -1 90 -3.8223288953304291e-02</internalNodes>
          <leafValues>
            -6.4286094903945923e-01 4.9706954509019852e-02</leafValues></_>
        <_>
          <internalNodes>
            0 -1 1007 6.1629305128008127e-04</internalNodes>
          <leafValues>
            -1.4451514184474945e-01 1.7255431413650513e-01</leafValues></_>
        <_>
          <internalNodes>
            0 -1 1010 -2.0222565159201622e-02</internalNodes>
          <leafValues>
            -7.7445107698440552e-01 3.4951813519001007e-02</leafValues></_>
        <_>
          <internalNodes>
            0 -1 167 4.9070678651332855e-03</internalNodes>
          <leafValues>
            -4.3866686522960663e-02 6.6387015581130981e-01</leafValues></_>
        <_>
          <internalNodes>
            0 -1 699 3.3948584459722042e-03</internalNodes>
          <leafValues>
            -9.1512687504291534e-02 2.8477796912193298e-01</leafValues></_>
        <_>
          <internalNodes>
            0 -1 618 2.2648461163043976e-02</internalNodes>
          <leafValues>
            4.3515473604202271e-02 -6.5058320760726929e-01</leafValues></_>
        <_>
          <internalNodes>
            0 -1 671 -6.6163493320345879e-03</internalNodes>
          <leafValues>
            5.1781582832336426e-01 -5.0633292645215988e-02</leafValues></_>
        <_>
          <internalNodes>
            0 -1 51 1.2549568898975849e-02</internalNodes>
          <leafValues>
            -6.3842885196208954e-02 3.5120457410812378e-01</leafValues></_>
        <_>
          <internalNodes>
            0 -1 1097 3.3680149354040623e-03</internalNodes>
          <leafValues>
            -9.0785257518291473e-02 2.5278180837631226e-01</leafValues></_>
        <_>
          <internalNodes>
            0 -1 434 4.6940177679061890e-02</internalNodes>
          <leafValues>
            2.8706282377243042e-02 -9.0583187341690063e-01</leafValues></_>
        <_>
          <internalNodes>
            0 -1 143 -3.0674345791339874e-02</internalNodes>
          <leafValues>
            -5.5075049400329590e-01 3.7547677755355835e-02</leafValues></_>
        <_>
          <internalNodes>
            0 -1 1068 -1.4260455965995789e-02</internalNodes>
          <leafValues>
            5.2952742576599121e-01 -4.7690540552139282e-02</leafValues></_>
        <_>
          <internalNodes>
            0 -1 617 -6.7229438573122025e-03</internalNodes>
          <leafValues>
            -3.7410765886306763e-01 6.8785697221755981e-02</leafValues></_>
        <_>
          <internalNodes>
            0 -1 897 5.6036304158624262e-05</internalNodes>
          <leafValues>
            1.4022079110145569e-01 -1.7845283448696136e-01</leafValues></_>
        <_>
          <internalNodes>
            0 -1 846 7.7054858207702637e-02</internalNodes>
          <leafValues>
            3.0277183279395103e-02 -9.2528349161148071e-01</leafValues></_>
        <_>
          <internalNodes>
            0 -1 220 -7.8751277178525925e-03</internalNodes>
          <leafValues>
            2.4767948687076569e-01 -1.1261115968227386e-01</leafValues></_>
        <_>
          <internalNodes>
            0 -1 304 -1.7766315490007401e-02</internalNodes>
          <leafValues>
            4.4468167424201965e-01 -6.0141719877719879e-02</leafValues></_>
        <_>
          <internalNodes>
            0 -1 306 1.3531130389310420e-04</internalNodes>
          <leafValues>
            1.6481471061706543e-01 -1.7210392653942108e-01</leafValues></_></weakClassifiers></_>
    <!-- stage 5 -->
    <_>
      <maxWeakCount>53</maxWeakCount>
      <stageThreshold>-7.6372587680816650e-01</stageThreshold>
      <weakClassifiers>
        <_>
          <internalNodes>
            0 -1 448 -3.3528953790664673e-02</internalNodes>
          <leafValues>
            -2.3809523880481720e-01 3.2374101877212524e-01</leafValues></_>
        <_>
          <internalNodes>
            0 -1 12 1.7248954623937607e-02</internalNodes>
          <leafValues>
            -4.6639032661914825e-02 5.2294254302978516e-01</leafValues></_>
        <_>
          <internalNodes>
            0 -1 12 1.6950612887740135e-02</internalNodes>
          <leafValues>
            3.2863696105778217e-03 -9.7725290060043335e-01</leafValues></_>
        <_>
          <internalNodes>
            0 -1 12 1.6880325973033905e-02</internalNodes>
          <leafValues>
            -5.5537570733577013e-04 8.0952709913253784e-01</leafValues></_>
        <_>
          <internalNodes>
            0 -1 984 -1.9671559333801270e-02</internalNodes>
          <leafValues>
            4.0265786647796631e-01 -1.0308888554573059e-01</leafValues></_>
        <_>
          <internalNodes>
            0 -1 173 1.4569301903247833e-01</internalNodes>
          <leafValues>
            1.2489686906337738e-01 -3.2322108745574951e-01</leafValues></_>
        <_>
          <internalNodes>
            0 -1 148 2.7056314051151276e-02</internalNodes>
          <leafValues>
            8.8845118880271912e-02 -2.4968768656253815e-01</leafValues></_>
        <_>
          <internalNodes>
            0 -1 81 -2.8588712215423584e-01</internalNodes>
          <leafValues>
            -8.1884145736694336e-01 5.6862790137529373e-02</leafValues></_>
        <_>
          <internalNodes>
            0 -1 493 -2.2370122373104095e-02</internalNodes>
          <leafValues>
            -5.3190171718597412e-01 4.2353637516498566e-02</leafValues></_>
        <_>
          <internalNodes>
            0 -1 727 3.8844174705445766e-03</internalNodes>
          <leafValues>
            -7.9612158238887787e-02 4.4706767797470093e-01</leafValues></_>
        <_>
          <internalNodes>
            0 -1 541 1.4359449967741966e-02</internalNodes>
          <leafValues>
            -3.9746694266796112e-02 6.1758261919021606e-01</leafValues></_>
        <_>
          <internalNodes>
            0 -1 849 -4.9704024568200111e-03</internalNodes>
          <leafValues>
            3.8995897769927979e-01 -7.1743942797183990e-02</leafValues></_>
        <_>
          <internalNodes>
            0 -1 164 1.0248142294585705e-02</internalNodes>
          <leafValues>
            -6.4758516848087311e-02 4.1281926631927490e-01</leafValues></_>
        <_>
          <internalNodes>
            0 -1 1079 1.0871408507227898e-02</internalNodes>
          <leafValues>
            1.2120956927537918e-01 -2.3802034556865692e-01</leafValues></_>
        <_>
          <internalNodes>
            0 -1 999 -4.8508904874324799e-03</internalNodes>
          <leafValues>
            2.5313442945480347e-01 -1.0579951107501984e-01</leafValues></_>
        <_>
          <internalNodes>
            0 -1 262 -3.7979749031364918e-03</internalNodes>
          <leafValues>
            2.5464129447937012e-01 -9.5989458262920380e-02</leafValues></_>
        <_>
          <internalNodes>
            0 -1 805 2.8382386080920696e-03</internalNodes>
          <leafValues>
            -6.8323694169521332e-02 3.7179243564605713e-01</leafValues></_>
        <_>
          <internalNodes>
            0 -1 358 -7.5476452708244324e-02</internalNodes>
          <leafValues>
            -9.0424156188964844e-01 2.8792737051844597e-02</leafValues></_>
        <_>
          <internalNodes>
            0 -1 525 1.2702355161309242e-03</internalNodes>
          <leafValues>
            -9.4009988009929657e-02 2.6766958832740784e-01</leafValues></_>
        <_>
          <internalNodes>
            0 -1 502 5.5462280288338661e-03</internalNodes>
          <leafValues>
            -5.5812038481235504e-02 4.2652142047882080e-01</leafValues></_>
        <_>
          <internalNodes>
            0 -1 703 3.7455204874277115e-03</internalNodes>
          <leafValues>
            -6.7491576075553894e-02 4.1102844476699829e-01</leafValues></_>
        <_>
          <internalNodes>
            0 -1 113 2.5028961244970560e-03</internalNodes>
          <leafValues>
            -1.1941727995872498e-01 2.3176376521587372e-01</leafValues></_>
        <_>
          <internalNodes>
            0 -1 317 9.7424685955047607e-03</internalNodes>
          <leafValues>
            -7.9814307391643524e-02 2.9838845133781433e-01</leafValues></_>
        <_>
          <internalNodes>
            0 -1 566 2.1896506659686565e-03</internalNodes>
          <leafValues>
            -8.4772355854511261e-02 3.2103434205055237e-01</leafValues></_>
        <_>
          <internalNodes>
            0 -1 1054 -2.1520860027521849e-03</internalNodes>
          <leafValues>
            3.0719003081321716e-01 -8.4685996174812317e-02</leafValues></_>
        <_>
          <internalNodes>
            0 -1 386 -1.9985586404800415e-02</internalNodes>
          <leafValues>
            -5.7186985015869141e-01 5.9408143162727356e-02</leafValues></_>
        <_>
          <internalNodes>
            0 -1 764 4.4006407260894775e-02</internalNodes>
          <leafValues>
            2.8024477884173393e-02 -7.8415983915328979e-01</leafValues></_>
        <_>
          <internalNodes>
            0 -1 911 4.2208041995763779e-03</internalNodes>
          <leafValues>
            -5.9076428413391113e-02 4.4478046894073486e-01</leafValues></_>
        <_>
          <internalNodes>
            0 -1 636 -1.8518264405429363e-03</internalNodes>
          <leafValues>
            2.6411810517311096e-01 -1.0624690353870392e-01</leafValues></_>
        <_>
          <internalNodes>
            0 -1 283 5.6660268455743790e-02</internalNodes>
          <leafValues>
            2.9818039387464523e-02 -8.1192278861999512e-01</leafValues></_>
        <_>
          <internalNodes>
            0 -1 911 -1.2222507502883673e-03</internalNodes>
          <leafValues>
            2.4289746582508087e-01 -1.1189028620719910e-01</leafValues></_>
        <_>
          <internalNodes>
            0 -1 303 -4.5609343796968460e-03</internalNodes>
          <leafValues>
            6.3276827335357666e-01 -3.8616847246885300e-02</leafValues></_>
        <_>
          <internalNodes>
            0 -1 239 2.5002285838127136e-03</internalNodes>
          <leafValues>
            -8.6908236145973206e-02 2.8107932209968567e-01</leafValues></_>
        <_>
          <internalNodes>
            0 -1 267 6.3829375430941582e-03</internalNodes>
          <leafValues>
            -2.6591571047902107e-02 8.6100292205810547e-01</leafValues></_>
        <_>
          <internalNodes>
            0 -1 554 -3.3774264156818390e-02</internalNodes>
          <leafValues>
            -8.0745780467987061e-01 4.0398206561803818e-02</leafValues></_>
        <_>
          <internalNodes>
            0 -1 248 -6.3141599297523499e-02</internalNodes>
          <leafValues>
            -6.2040185928344727e-01 3.3938772976398468e-02</leafValues></_>
        <_>
          <internalNodes>
            0 -1 938 1.0873002465814352e-03</internalNodes>
          <leafValues>
            -1.2463622540235519e-01 2.2854387760162354e-01</leafValues></_>
        <_>
          <internalNodes>
            0 -1 1060 3.5168290138244629e-02</internalNodes>
          <leafValues>
            -7.7492259442806244e-02 3.8090792298316956e-01</leafValues></_>
        <_>
          <internalNodes>
            0 -1 271 1.2492542713880539e-01</internalNodes>
          <leafValues>
            5.8178771287202835e-02 -5.1310300827026367e-01</leafValues></_>
        <_>
          <internalNodes>
            0 -1 105 1.9320391118526459e-02</internalNodes>
          <leafValues>
            4.3622218072414398e-02 -5.5002224445343018e-01</leafValues></_>
        <_>
          <internalNodes>
            0 -1 82 3.1899376772344112e-03</internalNodes>
          <leafValues>
            -1.0896201431751251e-01 2.8145551681518555e-01</leafValues></_>
        <_>
          <internalNodes>
            0 -1 966 -3.8015739992260933e-03</internalNodes>
          <leafValues>
            2.6855203509330750e-01 -1.0602550208568573e-01</leafValues></_>
        <_>
          <internalNodes>
            0 -1 278 3.1962790526449680e-03</internalNodes>
          <leafValues>
            -6.2695369124412537e-02 4.2212647199630737e-01</leafValues></_>
        <_>
          <internalNodes>
            0 -1 318 -1.7738331109285355e-02</internalNodes>
          <leafValues>
            3.5883328318595886e-01 -7.3415420949459076e-02</leafValues></_>
        <_>
          <internalNodes>
            0 -1 754 1.9391958415508270e-01</internalNodes>
          <leafValues>
            3.7594329565763474e-02 -7.6532602310180664e-01</leafValues></_>
        <_>
          <internalNodes>
            0 -1 667 -5.1445895805954933e-03</internalNodes>
          <leafValues>
            6.7207139730453491e-01 -4.5546568930149078e-02</leafValues></_>
        <_>
          <internalNodes>
            0 -1 411 1.0598620772361755e-01</internalNodes>
          <leafValues>
            -4.7094449400901794e-02 5.1788598299026489e-01</leafValues></_>
        <_>
          <internalNodes>
            0 -1 102 5.3771096281707287e-04</internalNodes>
          <leafValues>
            1.2633913755416870e-01 -2.2602067887783051e-01</leafValues></_>
        <_>
          <internalNodes>
            0 -1 1110 -3.0575497075915337e-03</internalNodes>
          <leafValues>
            4.1467928886413574e-01 -6.3183121383190155e-02</leafValues></_>
        <_>
          <internalNodes>
            0 -1 1026 8.1307962536811829e-03</internalNodes>
          <leafValues>
            8.6612999439239502e-02 -3.2364293932914734e-01</leafValues></_>
        <_>
          <internalNodes>
            0 -1 767 2.0321356132626534e-03</internalNodes>
          <leafValues>
            -1.1156740039587021e-01 2.4857325851917267e-01</leafValues></_>
        <_>
          <internalNodes>
            0 -1 1022 -2.3611973971128464e-02</internalNodes>
          <leafValues>
            -5.8654880523681641e-01 5.1306586712598801e-02</leafValues></_>
        <_>
          <internalNodes>
            0 -1 30 -7.1484565734863281e-02</internalNodes>
          <leafValues>
            6.3788324594497681e-01 -5.1503039896488190e-02</leafValues></_></weakClassifiers></_>
    <!-- stage 6 -->
    <_>
      <maxWeakCount>70</maxWeakCount>
      <stageThreshold>-7.7185702323913574e-01</stageThreshold>
      <weakClassifiers>
        <_>
          <internalNodes>
            0 -1 607 -9.0296201407909393e-02</internalNodes>
          <leafValues>
            -9.2857140302658081e-01 2.7099236845970154e-01</leafValues></_>
        <_>
          <internalNodes>
            0 -1 635 2.1867109462618828e-03</internalNodes>
          <leafValues>
            -7.9144112765789032e-02 3.2411175966262817e-01</leafValues></_>
        <_>
          <internalNodes>
            0 -1 562 -2.9860837385058403e-03</internalNodes>
          <leafValues>
            3.5218098759651184e-01 -7.3815539479255676e-02</leafValues></_>
        <_>
          <internalNodes>
            0 -1 450 2.7805319987237453e-03</internalNodes>
          <leafValues>
            -8.5599660873413086e-02 3.2641711831092834e-01</leafValues></_>
        <_>
          <internalNodes>
            0 -1 450 -7.4879475869238377e-04</internalNodes>
          <leafValues>
            1.8250337243080139e-01 -1.6300846636295319e-01</leafValues></_>
        <_>
          <internalNodes>
            0 -1 883 2.2968586999922991e-03</internalNodes>
          <leafValues>
            -5.7708308100700378e-02 3.3709433674812317e-01</leafValues></_>
        <_>
          <internalNodes>
            0 -1 501 -1.4642758294939995e-02</internalNodes>
          <leafValues>
            3.1997564435005188e-01 -8.3697624504566193e-02</leafValues></_>
        <_>
          <internalNodes>
            0 -1 232 -5.0464645028114319e-02</internalNodes>
          <leafValues>
            -5.6581246852874756e-01 4.6939127147197723e-02</leafValues></_>
        <_>
          <internalNodes>
            0 -1 492 -4.5103609561920166e-02</internalNodes>
          <leafValues>
            -6.4993518590927124e-01 3.3100865781307220e-02</leafValues></_>
        <_>
          <internalNodes>
            0 -1 791 5.7210378348827362e-02</internalNodes>
          <leafValues>
            -4.5248512178659439e-02 5.3638035058975220e-01</leafValues></_>
        <_>
          <internalNodes>
            0 -1 840 -1.4399887295439839e-03</internalNodes>
          <leafValues>
            2.7904480695724487e-01 -8.1700906157493591e-02</leafValues></_>
        <_>
          <internalNodes>
            0 -1 643 3.6724932491779327e-02</internalNodes>
          <leafValues>
            3.9236471056938171e-02 -6.8576246500015259e-01</leafValues></_>
        <_>
          <internalNodes>
            0 -1 228 9.8322518169879913e-03</internalNodes>
          <leafValues>
            -8.2201555371284485e-02 3.1385126709938049e-01</leafValues></_>
        <_>
          <internalNodes>
            0 -1 594 -1.1731535196304321e-02</internalNodes>
          <leafValues>
            3.5592168569564819e-01 -6.5242834389209747e-02</leafValues></_>
        <_>
          <internalNodes>
            0 -1 125 -2.1277263760566711e-02</internalNodes>
          <leafValues>
            2.9399761557579041e-01 -9.3029700219631195e-02</leafValues></_>
        <_>
          <internalNodes>
            0 -1 126 1.0764394700527191e-01</internalNodes>
          <leafValues>
            -5.5514246225357056e-02 4.9268582463264465e-01</leafValues></_>
        <_>
          <internalNodes>
            0 -1 1072 -6.5016495063900948e-03</internalNodes>
          <leafValues>
            4.1477927565574646e-01 -5.6233327835798264e-02</leafValues></_>
        <_>
          <internalNodes>
            0 -1 867 -9.1197416186332703e-03</internalNodes>
          <leafValues>
            6.1234390735626221e-01 -3.3966213464736938e-02</leafValues></_>
        <_>
          <internalNodes>
            0 -1 666 -7.2799092158675194e-03</internalNodes>
          <leafValues>
            4.0651723742485046e-01 -5.6427057832479477e-02</leafValues></_>
        <_>
          <internalNodes>
            0 -1 629 -1.7262481153011322e-02</internalNodes>
          <leafValues>
            2.8007674217224121e-01 -8.0712869763374329e-02</leafValues></_>
        <_>
          <internalNodes>
            0 -1 642 -2.4424921721220016e-02</internalNodes>
          <leafValues>
            -5.1868247985839844e-01 4.9655131995677948e-02</leafValues></_>
        <_>
          <internalNodes>
            0 -1 121 4.6602044254541397e-02</internalNodes>
          <leafValues>
            3.0833322554826736e-02 -7.1132022142410278e-01</leafValues></_>
        <_>
          <internalNodes>
            0 -1 927 8.5550528019666672e-03</internalNodes>
          <leafValues>
            -8.5719235241413116e-02 3.0063244700431824e-01</leafValues></_>
        <_>
          <internalNodes>
            0 -1 512 -2.5866744108498096e-03</internalNodes>
          <leafValues>
            3.2231441140174866e-01 -7.0589601993560791e-02</leafValues></_>
        <_>
          <internalNodes>
            0 -1 108 5.1354838069528341e-04</internalNodes>
          <leafValues>
            1.2538175284862518e-01 -2.0325991511344910e-01</leafValues></_>
        <_>
          <internalNodes>
            0 -1 59 6.5004099160432816e-03</internalNodes>
          <leafValues>
            -1.1073515564203262e-01 2.4003176391124725e-01</leafValues></_>
        <_>
          <internalNodes>
            0 -1 206 9.8086837679147720e-03</internalNodes>
          <leafValues>
            -8.1392548978328705e-02 3.0022165179252625e-01</leafValues></_>
        <_>
          <internalNodes>
            0 -1 474 4.2232766747474670e-02</internalNodes>
          <leafValues>
            3.8360957056283951e-02 -7.2343635559082031e-01</leafValues></_>
        <_>
          <internalNodes>
            0 -1 507 -2.0082909613847733e-02</internalNodes>
          <leafValues>
            -9.7008883953094482e-01 1.6874048858880997e-02</leafValues></_>
        <_>
          <internalNodes>
            0 -1 736 -2.2153511643409729e-02</internalNodes>
          <leafValues>
            -5.1404589414596558e-01 4.0910717099905014e-02</leafValues></_>
        <_>
          <internalNodes>
            0 -1 677 5.3296845406293869e-02</internalNodes>
          <leafValues>
            3.6780729889869690e-02 -6.5806609392166138e-01</leafValues></_>
        <_>
          <internalNodes>
            0 -1 809 -3.5226275213062763e-03</internalNodes>
          <leafValues>
            2.6441788673400879e-01 -9.2571467161178589e-02</leafValues></_>
        <_>
          <internalNodes>
            0 -1 505 3.8703583180904388e-02</internalNodes>
          <leafValues>
            2.7792165055871010e-02 -8.8550370931625366e-01</leafValues></_>
        <_>
          <internalNodes>
            0 -1 817 2.1222922950983047e-03</internalNodes>
          <leafValues>
            -1.0033922642469406e-01 2.4580630660057068e-01</leafValues></_>
        <_>
          <internalNodes>
            0 -1 568 -2.5030064862221479e-03</internalNodes>
          <leafValues>
            2.7738332748413086e-01 -8.3257749676704407e-02</leafValues></_>
        <_>
          <internalNodes>
            0 -1 451 -3.2542757689952850e-03</internalNodes>
          <leafValues>
            3.9181602001190186e-01 -5.4475333541631699e-02</leafValues></_>
        <_>
          <internalNodes>
            0 -1 705 -6.7819789052009583e-02</internalNodes>
          <leafValues>
            -5.7372701168060303e-01 3.9341617375612259e-02</leafValues></_>
        <_>
          <internalNodes>
            0 -1 874 2.3246578872203827e-02</internalNodes>
          <leafValues>
            2.9676480218768120e-02 -7.2327619791030884e-01</leafValues></_>
        <_>
          <internalNodes>
            0 -1 1082 1.3898730278015137e-02</internalNodes>
          <leafValues>
            -7.0878677070140839e-02 3.6596232652664185e-01</leafValues></_>
        <_>
          <internalNodes>
            0 -1 1045 -8.4271666128188372e-04</internalNodes>
          <leafValues>
            1.8644984066486359e-01 -1.2210689485073090e-01</leafValues></_>
        <_>
          <internalNodes>
            0 -1 940 -2.3195479065179825e-02</internalNodes>
          <leafValues>
            2.5352063775062561e-01 -9.3703292310237885e-02</leafValues></_>
        <_>
          <internalNodes>
            0 -1 996 -2.3367162793874741e-02</internalNodes>
          <leafValues>
            -7.7599573135375977e-01 3.4430194646120071e-02</leafValues></_>
        <_>
          <internalNodes>
            0 -1 477 -1.1309168487787247e-01</internalNodes>
          <leafValues>
            -6.5430331230163574e-01 3.1314544379711151e-02</leafValues></_>
        <_>
          <internalNodes>
            0 -1 421 6.6173011437058449e-03</internalNodes>
          <leafValues>
            -3.6399710923433304e-02 8.0978912115097046e-01</leafValues></_>
        <_>
          <internalNodes>
            0 -1 415 -1.4608012861572206e-04</internalNodes>
          <leafValues>
            -1.7626805603504181e-01 1.3930736482143402e-01</leafValues></_>
        <_>
          <internalNodes>
            0 -1 416 1.0404002852737904e-02</internalNodes>
          <leafValues>
            5.5842984467744827e-02 -4.3564838171005249e-01</leafValues></_>
        <_>
          <internalNodes>
            0 -1 723 -5.6481920182704926e-03</internalNodes>
          <leafValues>
            3.2083120942115784e-01 -8.0889426171779633e-02</leafValues></_>
        <_>
          <internalNodes>
            0 -1 231 -4.8586018383502960e-03</internalNodes>
          <leafValues>
            2.3570404946804047e-01 -9.6789494156837463e-02</leafValues></_>
        <_>
          <internalNodes>
            0 -1 353 -3.8679622113704681e-02</internalNodes>
          <leafValues>
            3.8599860668182373e-01 -5.8096345514059067e-02</leafValues></_>
        <_>
          <internalNodes>
            0 -1 656 3.4314440563321114e-03</internalNodes>
          <leafValues>
            -5.5152185261249542e-02 4.0675053000450134e-01</leafValues></_>
        <_>
          <internalNodes>
            0 -1 781 -6.3923737034201622e-03</internalNodes>
          <leafValues>
            2.0983274281024933e-01 -1.1579220741987228e-01</leafValues></_>
        <_>
          <internalNodes>
            0 -1 971 -4.8618242144584656e-03</internalNodes>
          <leafValues>
            -3.1434318423271179e-01 7.6845861971378326e-02</leafValues></_>
        <_>
          <internalNodes>
            0 -1 369 -3.9113783277571201e-03</internalNodes>
          <leafValues>
            3.5081169009208679e-01 -6.3290864229202271e-02</leafValues></_>
        <_>
          <internalNodes>
            0 -1 967 -3.6593643017113209e-03</internalNodes>
          <leafValues>
            3.9501523971557617e-01 -5.6231513619422913e-02</leafValues></_>
        <_>
          <internalNodes>
            0 -1 117 5.6005302816629410e-02</internalNodes>
          <leafValues>
            -5.2846312522888184e-02 4.5330685377120972e-01</leafValues></_>
        <_>
          <internalNodes>
            0 -1 273 -1.5644330531358719e-02</internalNodes>
          <leafValues>
            4.4854348897933960e-01 -4.8679620027542114e-02</leafValues></_>
        <_>
          <internalNodes>
            0 -1 253 4.4545978307723999e-03</internalNodes>
          <leafValues>
            -6.9560028612613678e-02 3.4799933433532715e-01</leafValues></_>
        <_>
          <internalNodes>
            0 -1 429 -1.7732243984937668e-02</internalNodes>
          <leafValues>
            -4.8746037483215332e-01 5.2614510059356689e-02</leafValues></_>
        <_>
          <internalNodes>
            0 -1 240 -1.2173811905086040e-02</internalNodes>
          <leafValues>
            7.8706908226013184e-01 -3.4966398030519485e-02</leafValues></_>
        <_>
          <internalNodes>
            0 -1 19 2.0480896346271038e-03</internalNodes>
          <leafValues>
            6.4807102084159851e-02 -4.0335661172866821e-01</leafValues></_>
        <_>
          <internalNodes>
            0 -1 293 -6.7979760468006134e-02</internalNodes>
          <leafValues>
            -9.5389688014984131e-01 2.2097939625382423e-02</leafValues></_>
        <_>
          <internalNodes>
            0 -1 865 2.9771532863378525e-02</internalNodes>
          <leafValues>
            -5.5959127843379974e-02 5.0122922658920288e-01</leafValues></_>
        <_>
          <internalNodes>
            0 -1 460 1.4497164636850357e-02</internalNodes>
          <leafValues>
            6.4672566950321198e-02 -4.0023913979530334e-01</leafValues></_>
        <_>
          <internalNodes>
            0 -1 75 -2.0346093922853470e-02</internalNodes>
          <leafValues>
            -9.6292203664779663e-01 2.4168295785784721e-02</leafValues></_>
        <_>
          <internalNodes>
            0 -1 73 3.0547054484486580e-03</internalNodes>
          <leafValues>
            -1.2330216914415359e-01 2.1111643314361572e-01</leafValues></_>
        <_>
          <internalNodes>
            0 -1 503 2.2198181599378586e-02</internalNodes>
          <leafValues>
            5.4349128156900406e-02 -4.6546161174774170e-01</leafValues></_>
        <_>
          <internalNodes>
            0 -1 712 3.9818217046558857e-03</internalNodes>
          <leafValues>
            -5.9480004012584686e-02 4.1948735713958740e-01</leafValues></_>
        <_>
          <internalNodes>
            0 -1 453 -1.4335248619318008e-02</internalNodes>
          <leafValues>
            -4.6053755283355713e-01 5.3353745490312576e-02</leafValues></_>
        <_>
          <internalNodes>
            0 -1 1081 7.7535286545753479e-03</internalNodes>
          <leafValues>
            -4.7269780188798904e-02 5.4599618911743164e-01</leafValues></_>
        <_>
          <internalNodes>
            0 -1 923 1.7965815495699644e-03</internalNodes>
          <leafValues>
            -1.2927696108818054e-01 2.0146913826465607e-01</leafValues></_></weakClassifiers></_>
    <!-- stage 7 -->
    <_>
      <maxWeakCount>75</maxWeakCount>
      <stageThreshold>-6.9912850856781006e-01</stageThreshold>
      <weakClassifiers>
        <_>
          <internalNodes>
            0 -1 264 5.8854773640632629e-02</internalNodes>
          <leafValues>
            2.7121889591217041e-01 -7.5757575035095215e-01</leafValues></_>
        <_>
          <internalNodes>
            0 -1 168 9.9887046962976456e-03</internalNodes>
          <leafValues>
            -1.7653269693255424e-02 7.3976248502731323e-01</leafValues></_>
        <_>
          <internalNodes>
            0 -1 16 3.1302410364151001e-01</internalNodes>
          <leafValues>
            3.9286423474550247e-02 -4.3620488047599792e-01</leafValues></_>
        <_>
          <internalNodes>
            0 -1 180 -1.0980444028973579e-02</internalNodes>
          <leafValues>
            2.6349139213562012e-01 -7.8397765755653381e-02</leafValues></_>
        <_>
          <internalNodes>
            0 -1 1024 6.4318761229515076e-02</internalNodes>
          <leafValues>
            -3.0333098024129868e-02 6.8282490968704224e-01</leafValues></_>
        <_>
          <internalNodes>
            0 -1 190 -2.4751299992203712e-02</internalNodes>
          <leafValues>
            4.1224092245101929e-01 -6.2080275267362595e-02</leafValues></_>
        <_>
          <internalNodes>
            0 -1 552 2.4093104526400566e-02</internalNodes>
          <leafValues>
            -9.1072194278240204e-02 2.3295146226882935e-01</leafValues></_>
        <_>
          <internalNodes>
            0 -1 715 5.9847101569175720e-02</internalNodes>
          <leafValues>
            -3.2687347382307053e-02 5.9954565763473511e-01</leafValues></_>
        <_>
          <internalNodes>
            0 -1 389 -1.9840482622385025e-02</internalNodes>
          <leafValues>
            5.0631606578826904e-01 -4.8610772937536240e-02</leafValues></_>
        <_>
          <internalNodes>
            0 -1 910 -5.6002072989940643e-02</internalNodes>
          <leafValues>
            -3.9392471313476562e-01 6.8221218883991241e-02</leafValues></_>
        <_>
          <internalNodes>
            0 -1 623 1.3258953578770161e-02</internalNodes>
          <leafValues>
            3.5891287028789520e-02 -5.2018684148788452e-01</leafValues></_>
        <_>
          <internalNodes>
            0 -1 913 -2.5868662633001804e-03</internalNodes>
          <leafValues>
            3.4402930736541748e-01 -5.8481663465499878e-02</leafValues></_>
        <_>
          <internalNodes>
            0 -1 995 1.1486059054732323e-02</internalNodes>
          <leafValues>
            -6.7719891667366028e-02 3.2465168833732605e-01</leafValues></_>
        <_>
          <internalNodes>
            0 -1 408 -3.8527764379978180e-02</internalNodes>
          <leafValues>
            -8.6390405893325806e-01 2.6713132858276367e-02</leafValues></_>
        <_>
          <internalNodes>
            0 -1 72 3.5911291837692261e-02</internalNodes>
          <leafValues>
            3.0866887420415878e-02 -8.2187283039093018e-01</leafValues></_>
        <_>
          <internalNodes>
            0 -1 205 -1.4074447751045227e-01</internalNodes>
          <leafValues>
            -5.7145190238952637e-01 3.4355331212282181e-02</leafValues></_>
        <_>
          <internalNodes>
            0 -1 364 7.1261245757341385e-03</internalNodes>
          <leafValues>
            -8.9038379490375519e-02 2.5019571185112000e-01</leafValues></_>
        <_>
          <internalNodes>
            0 -1 868 -6.8841041065752506e-03</internalNodes>
          <leafValues>
            2.7742591500282288e-01 -8.5085801780223846e-02</leafValues></_>
        <_>
          <internalNodes>
            0 -1 708 -2.3472202010452747e-03</internalNodes>
          <leafValues>
            2.0506690442562103e-01 -1.0253020375967026e-01</leafValues></_>
        <_>
          <internalNodes>
            0 -1 694 -1.8939327448606491e-02</internalNodes>
          <leafValues>
            -4.5427340269088745e-01 4.9902271479368210e-02</leafValues></_>
        <_>
          <internalNodes>
            0 -1 557 6.5485417842864990e-02</internalNodes>
          <leafValues>
            4.8214960843324661e-02 -4.8039570450782776e-01</leafValues></_>
        <_>
          <internalNodes>
            0 -1 615 5.4231829941272736e-02</internalNodes>
          <leafValues>
            5.3834732621908188e-02 -3.8114508986473083e-01</leafValues></_>
        <_>
          <internalNodes>
            0 -1 479 3.3704951405525208e-02</internalNodes>
          <leafValues>
            -7.8110292553901672e-02 2.7669167518615723e-01</leafValues></_>
        <_>
          <internalNodes>
            0 -1 414 -2.2900745272636414e-02</internalNodes>
          <leafValues>
            1.7719136178493500e-01 -1.1608478426933289e-01</leafValues></_>
        <_>
          <internalNodes>
            0 -1 718 -2.4605139624327421e-03</internalNodes>
          <leafValues>
            2.7473777532577515e-01 -7.6812133193016052e-02</leafValues></_>
        <_>
          <internalNodes>
            0 -1 181 1.7391074448823929e-02</internalNodes>
          <leafValues>
            3.9980702102184296e-02 -5.6130713224411011e-01</leafValues></_>
        <_>
          <internalNodes>
            0 -1 320 2.1650187671184540e-02</internalNodes>
          <leafValues>
            3.1586140394210815e-02 -5.7803875207901001e-01</leafValues></_>
        <_>
          <internalNodes>
            0 -1 589 2.9574092477560043e-02</internalNodes>
          <leafValues>
            3.2483715564012527e-02 -6.5504765510559082e-01</leafValues></_>
        <_>
          <internalNodes>
            0 -1 365 7.3385536670684814e-02</internalNodes>
          <leafValues>
            4.0539000183343887e-02 -5.0889152288436890e-01</leafValues></_>
        <_>
          <internalNodes>
            0 -1 161 -2.5480523705482483e-02</internalNodes>
          <leafValues>
            -6.4530396461486816e-01 2.9559837654232979e-02</leafValues></_>
        <_>
          <internalNodes>
            0 -1 896 5.4250615648925304e-03</internalNodes>
          <leafValues>
            -8.4020346403121948e-02 2.7001881599426270e-01</leafValues></_>
        <_>
          <internalNodes>
            0 -1 137 -1.3011138653382659e-03</internalNodes>
          <leafValues>
            -1.7111003398895264e-01 1.1839747428894043e-01</leafValues></_>
        <_>
          <internalNodes>
            0 -1 882 3.1717787496745586e-03</internalNodes>
          <leafValues>
            -6.1425253748893738e-02 3.5680305957794189e-01</leafValues></_>
        <_>
          <internalNodes>
            0 -1 1120 -2.1400069817900658e-04</internalNodes>
          <leafValues>
            -1.8376621603965759e-01 1.1844001710414886e-01</leafValues></_>
        <_>
          <internalNodes>
            0 -1 329 -4.9372687935829163e-03</internalNodes>
          <leafValues>
            2.2710761427879333e-01 -1.0172918438911438e-01</leafValues></_>
        <_>
          <internalNodes>
            0 -1 254 1.5863168984651566e-02</internalNodes>
          <leafValues>
            -5.2110306918621063e-02 3.9531338214874268e-01</leafValues></_>
        <_>
          <internalNodes>
            0 -1 1041 -4.0999859571456909e-02</internalNodes>
          <leafValues>
            3.6488085985183716e-01 -6.3996881246566772e-02</leafValues></_>
        <_>
          <internalNodes>
            0 -1 1066 -1.0725554823875427e-01</internalNodes>
          <leafValues>
            5.5149638652801514e-01 -3.6781761795282364e-02</leafValues></_>
        <_>
          <internalNodes>
            0 -1 517 2.2156771738082170e-03</internalNodes>
          <leafValues>
            -7.5989969074726105e-02 2.7506816387176514e-01</leafValues></_>
        <_>
          <internalNodes>
            0 -1 516 4.5363209210336208e-03</internalNodes>
          <leafValues>
            -7.2799921035766602e-02 3.5783675312995911e-01</leafValues></_>
        <_>
          <internalNodes>
            0 -1 571 -1.4732364797964692e-03</internalNodes>
          <leafValues>
            1.9930681586265564e-01 -1.2755776941776276e-01</leafValues></_>
        <_>
          <internalNodes>
            0 -1 866 -3.6710754036903381e-02</internalNodes>
          <leafValues>
            -5.9178459644317627e-01 4.0590025484561920e-02</leafValues></_>
        <_>
          <internalNodes>
            0 -1 321 1.1510454118251801e-02</internalNodes>
          <leafValues>
            -4.1984271258115768e-02 5.4860568046569824e-01</leafValues></_>
        <_>
          <internalNodes>
            0 -1 49 1.2059006839990616e-03</internalNodes>
          <leafValues>
            1.0690138489007950e-01 -1.9593553245067596e-01</leafValues></_>
        <_>
          <internalNodes>
            0 -1 229 -1.5454199165105820e-03</internalNodes>
          <leafValues>
            2.2599673271179199e-01 -9.9777579307556152e-02</leafValues></_>
        <_>
          <internalNodes>
            0 -1 701 3.2933749258518219e-02</internalNodes>
          <leafValues>
            4.7905571758747101e-02 -4.7667521238327026e-01</leafValues></_>
        <_>
          <internalNodes>
            0 -1 905 3.5408360417932272e-03</internalNodes>
          <leafValues>
            -1.0459448397159576e-01 2.2380012273788452e-01</leafValues></_>
        <_>
          <internalNodes>
            0 -1 227 1.7352750524878502e-02</internalNodes>
          <leafValues>
            -3.1970810145139694e-02 5.9562820196151733e-01</leafValues></_>
        <_>
          <internalNodes>
            0 -1 129 8.7618082761764526e-02</internalNodes>
          <leafValues>
            -5.4326884448528290e-02 3.6910223960876465e-01</leafValues></_>
        <_>
          <internalNodes>
            0 -1 898 -7.5800251215696335e-03</internalNodes>
          <leafValues>
            -3.7305599451065063e-01 5.6596416980028152e-02</leafValues></_>
        <_>
          <internalNodes>
            0 -1 543 9.7243674099445343e-03</internalNodes>
          <leafValues>
            -7.0411548018455505e-02 3.3988398313522339e-01</leafValues></_>
        <_>
          <internalNodes>
            0 -1 788 -1.3820528052747250e-02</internalNodes>
          <leafValues>
            -5.6592696905136108e-01 4.2950697243213654e-02</leafValues></_>
        <_>
          <internalNodes>
            0 -1 532 5.6412350386381149e-04</internalNodes>
          <leafValues>
            -1.3734707236289978e-01 1.5057541429996490e-01</leafValues></_>
        <_>
          <internalNodes>
            0 -1 965 1.5167470090091228e-02</internalNodes>
          <leafValues>
            -9.9176026880741119e-02 2.4163292348384857e-01</leafValues></_>
        <_>
          <internalNodes>
            0 -1 738 1.6757132485508919e-02</internalNodes>
          <leafValues>
            -3.4546192735433578e-02 6.6426777839660645e-01</leafValues></_>
        <_>
          <internalNodes>
            0 -1 285 -1.3721731491386890e-02</internalNodes>
          <leafValues>
            6.5773361921310425e-01 -2.8996469452977180e-02</leafValues></_>
        <_>
          <internalNodes>
            0 -1 150 4.1259627789258957e-02</internalNodes>
          <leafValues>
            3.4880444407463074e-02 -7.2368419170379639e-01</leafValues></_>
        <_>
          <internalNodes>
            0 -1 55 2.2356716915965080e-02</internalNodes>
          <leafValues>
            -8.5032805800437927e-02 2.6298969984054565e-01</leafValues></_>
        <_>
          <internalNodes>
            0 -1 382 -4.2356122285127640e-03</internalNodes>
          <leafValues>
            2.2069658339023590e-01 -1.0029218345880508e-01</leafValues></_>
        <_>
          <internalNodes>
            0 -1 869 -4.1678771376609802e-02</internalNodes>
          <leafValues>
            -7.2468811273574829e-01 3.3409256488084793e-02</leafValues></_>
        <_>
          <internalNodes>
            0 -1 299 1.9727990031242371e-02</internalNodes>
          <leafValues>
            4.1604306548833847e-02 -4.5865270495414734e-01</leafValues></_>
        <_>
          <internalNodes>
            0 -1 209 1.3295605778694153e-02</internalNodes>
          <leafValues>
            4.8339512199163437e-02 -4.3088972568511963e-01</leafValues></_>
        <_>
          <internalNodes>
            0 -1 937 -3.4781666472554207e-03</internalNodes>
          <leafValues>
            1.8006904423236847e-01 -1.2407340854406357e-01</leafValues></_>
        <_>
          <internalNodes>
            0 -1 939 -1.1428401805460453e-02</internalNodes>
          <leafValues>
            2.3783388733863831e-01 -9.9253252148628235e-02</leafValues></_>
        <_>
          <internalNodes>
            0 -1 1035 -9.8041845485568047e-03</internalNodes>
          <leafValues>
            -4.7323313355445862e-01 5.1931276917457581e-02</leafValues></_>
        <_>
          <internalNodes>
            0 -1 1071 2.8172540478408337e-03</internalNodes>
          <leafValues>
            -1.3018482923507690e-01 1.8110598623752594e-01</leafValues></_>
        <_>
          <internalNodes>
            0 -1 821 -1.5997044742107391e-02</internalNodes>
          <leafValues>
            4.6094226837158203e-01 -5.0384465605020523e-02</leafValues></_>
        <_>
          <internalNodes>
            0 -1 859 -2.4413142353296280e-02</internalNodes>
          <leafValues>
            -4.9694347381591797e-01 5.7407349348068237e-02</leafValues></_>
        <_>
          <internalNodes>
            0 -1 484 2.6960656046867371e-02</internalNodes>
          <leafValues>
            3.0426178127527237e-02 -6.5095776319503784e-01</leafValues></_>
        <_>
          <internalNodes>
            0 -1 165 1.5081673627719283e-03</internalNodes>
          <leafValues>
            6.3647441565990448e-02 -3.2164904475212097e-01</leafValues></_>
        <_>
          <internalNodes>
            0 -1 752 2.3729884997010231e-03</internalNodes>
          <leafValues>
            -1.2409560382366180e-01 1.7893102765083313e-01</leafValues></_>
        <_>
          <internalNodes>
            0 -1 355 -4.0608239360153675e-03</internalNodes>
          <leafValues>
            3.1708166003227234e-01 -6.9611772894859314e-02</leafValues></_>
        <_>
          <internalNodes>
            0 -1 880 -9.8110525868833065e-04</internalNodes>
          <leafValues>
            1.8646581470966339e-01 -1.2673586606979370e-01</leafValues></_>
        <_>
          <internalNodes>
            0 -1 46 2.9043038375675678e-03</internalNodes>
          <leafValues>
            -1.2172850221395493e-01 1.7535823583602905e-01</leafValues></_>
        <_>
          <internalNodes>
            0 -1 942 3.5489514470100403e-02</internalNodes>
          <leafValues>
            6.6300235688686371e-02 -3.5514983534812927e-01</leafValues></_></weakClassifiers></_>
    <!-- stage 8 -->
    <_>
      <maxWeakCount>68</maxWeakCount>
      <stageThreshold>-6.5765929222106934e-01</stageThreshold>
      <weakClassifiers>
        <_>
          <internalNodes>
            0 -1 1088 9.2500641942024231e-02</internalNodes>
          <leafValues>
            2.7519381046295166e-01 -5.0000000000000000e-01</leafValues></_>
        <_>
          <internalNodes>
            0 -1 609 5.5637932382524014e-03</internalNodes>
          <leafValues>
            -1.1268967762589455e-02 7.5447571277618408e-01</leafValues></_>
        <_>
          <internalNodes>
            0 -1 247 4.5019961893558502e-02</internalNodes>
          <leafValues>
            -6.8518966436386108e-02 4.4721677899360657e-01</leafValues></_>
        <_>
          <internalNodes>
            0 -1 65 -4.7382064163684845e-02</internalNodes>
          <leafValues>
            -2.7148887515068054e-01 9.8221451044082642e-02</leafValues></_>
        <_>
          <internalNodes>
            0 -1 302 1.4371478930115700e-02</internalNodes>
          <leafValues>
            -6.2320299446582794e-02 6.0836428403854370e-01</leafValues></_>
        <_>
          <internalNodes>
            0 -1 884 -2.4578217417001724e-02</internalNodes>
          <leafValues>
            6.6543859243392944e-01 -1.6609165817499161e-02</leafValues></_>
        <_>
          <internalNodes>
            0 -1 784 3.8986787199974060e-02</internalNodes>
          <leafValues>
            2.8854725882411003e-02 -5.9587150812149048e-01</leafValues></_>
        <_>
          <internalNodes>
            0 -1 1080 -3.0862821731716394e-03</internalNodes>
          <leafValues>
            3.1430891156196594e-01 -6.5927095711231232e-02</leafValues></_>
        <_>
          <internalNodes>
            0 -1 1089 3.6671536508947611e-04</internalNodes>
          <leafValues>
            1.1291100829839706e-01 -1.9723042845726013e-01</leafValues></_>
        <_>
          <internalNodes>
            0 -1 1028 7.6365796849131584e-03</internalNodes>
          <leafValues>
            -4.1668727993965149e-02 5.5313467979431152e-01</leafValues></_>
        <_>
          <internalNodes>
            0 -1 110 -1.3960618525743484e-04</internalNodes>
          <leafValues>
            -1.6687734425067902e-01 1.4651168882846832e-01</leafValues></_>
        <_>
          <internalNodes>
            0 -1 194 -1.7225518822669983e-02</internalNodes>
          <leafValues>
            4.4856271147727966e-01 -4.4083423912525177e-02</leafValues></_>
        <_>
          <internalNodes>
            0 -1 662 -3.7840108852833509e-03</internalNodes>
          <leafValues>
            3.5240471363067627e-01 -5.9807799756526947e-02</leafValues></_>
        <_>
          <internalNodes>
            0 -1 325 2.3778097704052925e-02</internalNodes>
          <leafValues>
            -1.2166763842105865e-01 1.6755057871341705e-01</leafValues></_>
        <_>
          <internalNodes>
            0 -1 687 6.8781688809394836e-02</internalNodes>
          <leafValues>
            4.7113742679357529e-02 -5.0912415981292725e-01</leafValues></_>
        <_>
          <internalNodes>
            0 -1 856 3.6305114626884460e-02</internalNodes>
          <leafValues>
            -5.3785219788551331e-02 4.2515450716018677e-01</leafValues></_>
        <_>
          <internalNodes>
            0 -1 391 -8.3523802459239960e-03</internalNodes>
          <leafValues>
            3.0420646071434021e-01 -7.5943760573863983e-02</leafValues></_>
        <_>
          <internalNodes>
            0 -1 812 -3.2019033096730709e-03</internalNodes>
          <leafValues>
            3.5885134339332581e-01 -6.1880432069301605e-02</leafValues></_>
        <_>
          <internalNodes>
            0 -1 924 -1.7428901046514511e-02</internalNodes>
          <leafValues>
            3.3302450180053711e-01 -7.4398584663867950e-02</leafValues></_>
        <_>
          <internalNodes>
            0 -1 759 -4.7319345176219940e-03</internalNodes>
          <leafValues>
            -1.8657763302326202e-01 1.1970200389623642e-01</leafValues></_>
        <_>
          <internalNodes>
            0 -1 1011 -2.2032400593161583e-03</internalNodes>
          <leafValues>
            2.1265314519405365e-01 -1.0888165235519409e-01</leafValues></_>
        <_>
          <internalNodes>
            0 -1 1013 -1.1599878780543804e-02</internalNodes>
          <leafValues>
            -3.5138088464736938e-01 6.7785218358039856e-02</leafValues></_>
        <_>
          <internalNodes>
            0 -1 29 -7.0651389658451080e-02</internalNodes>
          <leafValues>
            6.9951510429382324e-01 -2.8916239738464355e-02</leafValues></_>
        <_>
          <internalNodes>
            0 -1 1091 -1.0758580901892856e-04</internalNodes>
          <leafValues>
            -1.5664635598659515e-01 1.3883925974369049e-01</leafValues></_>
        <_>
          <internalNodes>
            0 -1 212 6.1007443815469742e-02</internalNodes>
          <leafValues>
            -4.2101632803678513e-02 4.7804173827171326e-01</leafValues></_>
        <_>
          <internalNodes>
            0 -1 162 6.5296828746795654e-02</internalNodes>
          <leafValues>
            3.0214687809348106e-02 -8.4854686260223389e-01</leafValues></_>
        <_>
          <internalNodes>
            0 -1 1092 -5.4407045245170593e-03</internalNodes>
          <leafValues>
            4.6605196595191956e-01 -5.7585872709751129e-02</leafValues></_>
        <_>
          <internalNodes>
            0 -1 1130 4.9942098557949066e-03</internalNodes>
          <leafValues>
            6.2267694622278214e-02 -3.6031615734100342e-01</leafValues></_>
        <_>
          <internalNodes>
            0 -1 403 5.7075782679021358e-03</internalNodes>
          <leafValues>
            -4.4130500406026840e-02 5.3191798925399780e-01</leafValues></_>
        <_>
          <internalNodes>
            0 -1 15 -3.4737813472747803e-01</internalNodes>
          <leafValues>
            -6.7265844345092773e-01 3.6846995353698730e-02</leafValues></_>
        <_>
          <internalNodes>
            0 -1 494 3.9284940809011459e-02</internalNodes>
          <leafValues>
            -8.7020412087440491e-02 2.4337051808834076e-01</leafValues></_>
        <_>
          <internalNodes>
            0 -1 676 -1.1751616001129150e-01</internalNodes>
          <leafValues>
            2.6565620303153992e-01 -7.2066195309162140e-02</leafValues></_>
        <_>
          <internalNodes>
            0 -1 1096 -1.0569465812295675e-03</internalNodes>
          <leafValues>
            -1.7141015827655792e-01 1.2290117144584656e-01</leafValues></_>
        <_>
          <internalNodes>
            0 -1 654 -3.9487318135797977e-03</internalNodes>
          <leafValues>
            2.3990009725093842e-01 -9.3131884932518005e-02</leafValues></_>
        <_>
          <internalNodes>
            0 -1 855 2.1504040807485580e-02</internalNodes>
          <leafValues>
            4.5047190040349960e-02 -5.4533261060714722e-01</leafValues></_>
        <_>
          <internalNodes>
            0 -1 64 -1.9860462844371796e-01</internalNodes>
          <leafValues>
            -5.6613302230834961e-01 3.7866823375225067e-02</leafValues></_>
        <_>
          <internalNodes>
            0 -1 357 -2.7904927264899015e-04</internalNodes>
          <leafValues>
            -1.5523517131805420e-01 1.3967764377593994e-01</leafValues></_>
        <_>
          <internalNodes>
            0 -1 268 1.7321892082691193e-02</internalNodes>
          <leafValues>
            -3.7952404469251633e-02 5.2314412593841553e-01</leafValues></_>
        <_>
          <internalNodes>
            0 -1 63 -3.5784854553639889e-03</internalNodes>
          <leafValues>
            -3.2555681467056274e-01 7.1992017328739166e-02</leafValues></_>
        <_>
          <internalNodes>
            0 -1 396 -1.8179039470851421e-03</internalNodes>
          <leafValues>
            1.5748600661754608e-01 -1.3560573756694794e-01</leafValues></_>
        <_>
          <internalNodes>
            0 -1 732 -2.9520527459681034e-04</internalNodes>
          <leafValues>
            1.8147759139537811e-01 -1.1897170543670654e-01</leafValues></_>
        <_>
          <internalNodes>
            0 -1 25 -1.0555284097790718e-02</internalNodes>
          <leafValues>
            2.0035973191261292e-01 -9.9591083824634552e-02</leafValues></_>
        <_>
          <internalNodes>
            0 -1 60 1.3994866982102394e-02</internalNodes>
          <leafValues>
            -7.5122281908988953e-02 2.7892887592315674e-01</leafValues></_>
        <_>
          <internalNodes>
            0 -1 225 -1.1570228263735771e-02</internalNodes>
          <leafValues>
            -3.5738089680671692e-01 6.2682360410690308e-02</leafValues></_>
        <_>
          <internalNodes>
            0 -1 36 3.6176547408103943e-02</internalNodes>
          <leafValues>
            4.0143124759197235e-02 -4.8511782288551331e-01</leafValues></_>
        <_>
          <internalNodes>
            0 -1 385 -3.0279081314802170e-02</internalNodes>
          <leafValues>
            -6.7606651782989502e-01 2.8912231326103210e-02</leafValues></_>
        <_>
          <internalNodes>
            0 -1 208 -3.7405216135084629e-03</internalNodes>
          <leafValues>
            2.9608276486396790e-01 -7.4807576835155487e-02</leafValues></_>
        <_>
          <internalNodes>
            0 -1 58 6.0112518258392811e-03</internalNodes>
          <leafValues>
            7.8464634716510773e-02 -2.6554000377655029e-01</leafValues></_>
        <_>
          <internalNodes>
            0 -1 735 7.7963476069271564e-03</internalNodes>
          <leafValues>
            -2.3868102580308914e-02 9.0045464038848877e-01</leafValues></_>
        <_>
          <internalNodes>
