<?xml version="1.0"?>
<opencv_storage>
<stage7>
  <maxWeakCount>75</maxWeakCount>
  <stageThreshold>-6.9912850856781006e-01</stageThreshold>
  <weakClassifiers>
    <_>
      <internalNodes>
        0 -1 30711 5.8854773640632629e-02</internalNodes>
      <leafValues>
        2.7121889591217041e-01 -7.5757575035095215e-01</leafValues></_>
    <_>
      <internalNodes>
        0 -1 19368 9.9887046962976456e-03</internalNodes>
      <leafValues>
        -1.7653269693255424e-02 7.3976248502731323e-01</leafValues></_>
    <_>
      <internalNodes>
        0 -1 765 3.1302410364151001e-01</internalNodes>
      <leafValues>
        3.9286423474550247e-02 -4.3620488047599792e-01</leafValues></_>
    <_>
      <internalNodes>
        0 -1 20317 -1.0980444028973579e-02</internalNodes>
      <leafValues>
        2.6349139213562012e-01 -7.8397765755653381e-02</leafValues></_>
    <_>
      <internalNodes>
        0 -1 118664 6.4318761229515076e-02</internalNodes>
      <leafValues>
        -3.0333098024129868e-02 6.8282490968704224e-01</leafValues></_>
    <_>
      <internalNodes>
        0 -1 21559 -2.4751299992203712e-02</internalNodes>
      <leafValues>
        4.1224092245101929e-01 -6.2080275267362595e-02</leafValues></_>
    <_>
      <internalNodes>
        0 -1 67299 2.4093104526400566e-02</internalNodes>
      <leafValues>
        -9.1072194278240204e-02 2.3295146226882935e-01</leafValues></_>
    <_>
      <internalNodes>
        0 -1 85222 5.9847101569175720e-02</internalNodes>
      <leafValues>
        -3.2687347382307053e-02 5.9954565763473511e-01</leafValues></_>
    <_>
      <internalNodes>
        0 -1 45847 -1.9840482622385025e-02</internalNodes>
      <leafValues>
        5.0631606578826904e-01 -4.8610772937536240e-02</leafValues></_>
    <_>
      <internalNodes>
        0 -1 108678 -5.6002072989940643e-02</internalNodes>
      <leafValues>
        -3.9392471313476562e-01 6.8221218883991241e-02</leafValues></_>
    <_>
      <internalNodes>
        0 -1 75072 1.3258953578770161e-02</internalNodes>
      <leafValues>
        3.5891287028789520e-02 -5.2018684148788452e-01</leafValues></_>
    <_>
      <internalNodes>
        0 -1 109099 -2.5868662633001804e-03</internalNodes>
      <leafValues>
        3.4402930736541748e-01 -5.8481663465499878e-02</leafValues></_>
    <_>
      <internalNodes>
        0 -1 116544 1.1486059054732323e-02</internalNodes>
      <leafValues>
        -6.7719891667366028e-02 3.2465168833732605e-01</leafValues></_>
    <_>
      <internalNodes>
        0 -1 47261 -3.8527764379978180e-02</internalNodes>
      <leafValues>
        -8.6390405893325806e-01 2.6713132858276367e-02</leafValues></_>
    <_>
      <internalNodes>
        0 -1 6319 3.5911291837692261e-02</internalNodes>
      <leafValues>
        3.0866887420415878e-02 -8.2187283039093018e-01</leafValues></_>
    <_>
      <internalNodes>
        0 -1 24232 -1.4074447751045227e-01</internalNodes>
      <leafValues>
        -5.7145190238952637e-01 3.4355331212282181e-02</leafValues></_>
    <_>
      <internalNodes>
        0 -1 43189 7.1261245757341385e-03</internalNodes>
      <leafValues>
        -8.9038379490375519e-02 2.5019571185112000e-01</leafValues></_>
    <_>
      <internalNodes>
        0 -1 103091 -6.8841041065752506e-03</internalNodes>
      <leafValues>
        2.7742591500282288e-01 -8.5085801780223846e-02</leafValues></_>
    <_>
      <internalNodes>
        0 -1 84659 -2.3472202010452747e-03</internalNodes>
      <leafValues>
        2.0506690442562103e-01 -1.0253020375967026e-01</leafValues></_>
    <_>
      <internalNodes>
        0 -1 83259 -1.8939327448606491e-02</internalNodes>
      <leafValues>
        -4.5427340269088745e-01 4.9902271479368210e-02</leafValues></_>
    <_>
      <internalNodes>
        0 -1 67677 6.5485417842864990e-02</internalNodes>
      <leafValues>
        4.8214960843324661e-02 -4.8039570450782776e-01</leafValues></_>
    <_>
      <internalNodes>
        0 -1 74322 5.4231829941272736e-02</internalNodes>
      <leafValues>
        5.3834732621908188e-02 -3.8114508986473083e-01</leafValues></_>
    <_>
      <internalNodes>
        0 -1 56420 3.3704951405525208e-02</internalNodes>
      <leafValues>
        -7.8110292553901672e-02 2.7669167518615723e-01</leafValues></_>
    <_>
      <internalNodes>
        0 -1 47931 -2.2900745272636414e-02</internalNodes>
      <leafValues>
        1.7719136178493500e-01 -1.1608478426933289e-01</leafValues></_>
    <_>
      <internalNodes>
        0 -1 85399 -2.4605139624327421e-03</internalNodes>
      <leafValues>
        2.7473777532577515e-01 -7.6812133193016052e-02</leafValues></_>
    <_>
      <internalNodes>
        0 -1 20330 1.7391074448823929e-02</internalNodes>
      <leafValues>
        3.9980702102184296e-02 -5.6130713224411011e-01</leafValues></_>
    <_>
      <internalNodes>
        0 -1 38064 2.1650187671184540e-02</internalNodes>
      <leafValues>
        3.1586140394210815e-02 -5.7803875207901001e-01</leafValues></_>
    <_>
      <internalNodes>
        0 -1 71540 2.9574092477560043e-02</internalNodes>
      <leafValues>
        3.2483715564012527e-02 -6.5504765510559082e-01</leafValues></_>
    <_>
      <internalNodes>
        0 -1 43296 7.3385536670684814e-02</internalNodes>
      <leafValues>
        4.0539000183343887e-02 -5.0889152288436890e-01</leafValues></_>
    <_>
      <internalNodes>
        0 -1 18268 -2.5480523705482483e-02</internalNodes>
      <leafValues>
        -6.4530396461486816e-01 2.9559837654232979e-02</leafValues></_>
    <_>
      <internalNodes>
        0 -1 105588 5.4250615648925304e-03</internalNodes>
      <leafValues>
        -8.4020346403121948e-02 2.7001881599426270e-01</leafValues></_>
    <_>
      <internalNodes>
        0 -1 14170 -1.3011138653382659e-03</internalNodes>
      <leafValues>
        -1.7111003398895264e-01 1.1839747428894043e-01</leafValues></_>
    <_>
      <internalNodes>
        0 -1 104638 3.1717787496745586e-03</internalNodes>
      <leafValues>
        -6.1425253748893738e-02 3.5680305957794189e-01</leafValues></_>
    <_>
      <internalNodes>
        0 -1 124804 -2.1400069817900658e-04</internalNodes>
      <leafValues>
        -1.8376621603965759e-01 1.1844001710414886e-01</leafValues></_>
    <_>
      <internalNodes>
        0 -1 38480 -4.9372687935829163e-03</internalNodes>
      <leafValues>
        2.2710761427879333e-01 -1.0172918438911438e-01</leafValues></_>
    <_>
      <internalNodes>
        0 -1 29819 1.5863168984651566e-02</internalNodes>
      <leafValues>
        -5.2110306918621063e-02 3.9531338214874268e-01</leafValues></_>
    <_>
      <internalNodes>
        0 -1 120639 -4.0999859571456909e-02</internalNodes>
      <leafValues>
        3.6488085985183716e-01 -6.3996881246566772e-02</leafValues></_>
    <_>
      <internalNodes>
        0 -1 122163 -1.0725554823875427e-01</internalNodes>
      <leafValues>
        5.5149638652801514e-01 -3.6781761795282364e-02</leafValues></_>
    <_>
      <internalNodes>
        0 -1 62209 2.2156771738082170e-03</internalNodes>
      <leafValues>
        -7.5989969074726105e-02 2.7506816387176514e-01</leafValues></_>
    <_>
      <internalNodes>
        0 -1 62205 4.5363209210336208e-03</internalNodes>
      <leafValues>
        -7.2799921035766602e-02 3.5783675312995911e-01</leafValues></_>
    <_>
      <internalNodes>
        0 -1 69887 -1.4732364797964692e-03</internalNodes>
      <leafValues>
        1.9930681586265564e-01 -1.2755776941776276e-01</leafValues></_>
    <_>
      <internalNodes>
        0 -1 102639 -3.6710754036903381e-02</internalNodes>
      <leafValues>
        -5.9178459644317627e-01 4.0590025484561920e-02</leafValues></_>
    <_>
      <internalNodes>
        0 -1 38167 1.1510454118251801e-02</internalNodes>
      <leafValues>
        -4.1984271258115768e-02 5.4860568046569824e-01</leafValues></_>
    <_>
      <internalNodes>
        0 -1 2774 1.2059006839990616e-03</internalNodes>
      <leafValues>
        1.0690138489007950e-01 -1.9593553245067596e-01</leafValues></_>
    <_>
      <internalNodes>
        0 -1 28327 -1.5454199165105820e-03</internalNodes>
      <leafValues>
        2.2599673271179199e-01 -9.9777579307556152e-02</leafValues></_>
    <_>
      <internalNodes>
        0 -1 83975 3.2933749258518219e-02</internalNodes>
      <leafValues>
        4.7905571758747101e-02 -4.7667521238327026e-01</leafValues></_>
    <_>
      <internalNodes>
        0 -1 107847 3.5408360417932272e-03</internalNodes>
      <leafValues>
        -1.0459448397159576e-01 2.2380012273788452e-01</leafValues></_>
    <_>
      <internalNodes>
        0 -1 28125 1.7352750524878502e-02</internalNodes>
      <leafValues>
        -3.1970810145139694e-02 5.9562820196151733e-01</leafValues></_>
    <_>
      <internalNodes>
        0 -1 12172 8.7618082761764526e-02</internalNodes>
      <leafValues>
        -5.4326884448528290e-02 3.6910223960876465e-01</leafValues></_>
    <_>
      <internalNodes>
        0 -1 105753 -7.5800251215696335e-03</internalNodes>
      <leafValues>
        -3.7305599451065063e-01 5.6596416980028152e-02</leafValues></_>
    <_>
      <internalNodes>
        0 -1 64636 9.7243674099445343e-03</internalNodes>
      <leafValues>
        -7.0411548018455505e-02 3.3988398313522339e-01</leafValues></_>
    <_>
      <internalNodes>
        0 -1 93840 -1.3820528052747250e-02</internalNodes>
      <leafValues>
        -5.6592696905136108e-01 4.2950697243213654e-02</leafValues></_>
    <_>
      <internalNodes>
        0 -1 63707 5.6412350386381149e-04</internalNodes>
      <leafValues>
        -1.3734707236289978e-01 1.5057541429996490e-01</leafValues></_>
    <_>
      <internalNodes>
        0 -1 114279 1.5167470090091228e-02</internalNodes>
      <leafValues>
        -9.9176026880741119e-02 2.4163292348384857e-01</leafValues></_>
    <_>
      <internalNodes>
        0 -1 86765 1.6757132485508919e-02</internalNodes>
      <leafValues>
        -3.4546192735433578e-02 6.6426777839660645e-01</leafValues></_>
    <_>
      <internalNodes>
        0 -1 34736 -1.3721731491386890e-02</internalNodes>
      <leafValues>
        6.5773361921310425e-01 -2.8996469452977180e-02</leafValues></_>
    <_>
      <internalNodes>
        0 -1 16585 4.1259627789258957e-02</internalNodes>
      <leafValues>
        3.4880444407463074e-02 -7.2368419170379639e-01</leafValues></_>
    <_>
      <internalNodes>
        0 -1 3285 2.2356716915965080e-02</internalNodes>
      <leafValues>
        -8.5032805800437927e-02 2.6298969984054565e-01</leafValues></_>
    <_>
      <internalNodes>
        0 -1 44614 -4.2356122285127640e-03</internalNodes>
      <leafValues>
        2.2069658339023590e-01 -1.0029218345880508e-01</leafValues></_>
    <_>
      <internalNodes>
        0 -1 103307 -4.1678771376609802e-02</internalNodes>
      <leafValues>
        -7.2468811273574829e-01 3.3409256488084793e-02</leafValues></_>
    <_>
      <internalNodes>
        0 -1 36182 1.9727990031242371e-02</internalNodes>
      <leafValues>
        4.1604306548833847e-02 -4.5865270495414734e-01</leafValues></_>
    <_>
      <internalNodes>
        0 -1 25530 1.3295605778694153e-02</internalNodes>
      <leafValues>
        4.8339512199163437e-02 -4.3088972568511963e-01</leafValues></_>
    <_>
      <internalNodes>
        0 -1 110918 -3.4781666472554207e-03</internalNodes>
      <leafValues>
        1.8006904423236847e-01 -1.2407340854406357e-01</leafValues></_>
    <_>
      <internalNodes>
        0 -1 111129 -1.1428401805460453e-02</internalNodes>
      <leafValues>
        2.3783388733863831e-01 -9.9253252148628235e-02</leafValues></_>
    <_>
      <internalNodes>
        0 -1 119829 -9.8041845485568047e-03</internalNodes>
      <leafValues>
        -4.7323313355445862e-01 5.1931276917457581e-02</leafValues></_>
    <_>
      <internalNodes>
        0 -1 122518 2.8172540478408337e-03</internalNodes>
      <leafValues>
        -1.3018482923507690e-01 1.8110598623752594e-01</leafValues></_>
    <_>
      <internalNodes>
        0 -1 97636 -1.5997044742107391e-02</internalNodes>
      <leafValues>
        4.6094226837158203e-01 -5.0384465605020523e-02</leafValues></_>
    <_>
      <internalNodes>
        0 -1 101065 -2.4413142353296280e-02</internalNodes>
      <leafValues>
        -4.9694347381591797e-01 5.7407349348068237e-02</leafValues></_>
    <_>
      <internalNodes>
        0 -1 56845 2.6960656046867371e-02</internalNodes>
      <leafValues>
        3.0426178127527237e-02 -6.5095776319503784e-01</leafValues></_>
    <_>
      <internalNodes>
        0 -1 19355 1.5081673627719283e-03</internalNodes>
      <leafValues>
        6.3647441565990448e-02 -3.2164904475212097e-01</leafValues></_>
    <_>
      <internalNodes>
        0 -1 87886 2.3729884997010231e-03</internalNodes>
      <leafValues>
        -1.2409560382366180e-01 1.7893102765083313e-01</leafValues></_>
    <_>
      <internalNodes>
        0 -1 42050 -4.0608239360153675e-03</internalNodes>
      <leafValues>
        3.1708166003227234e-01 -6.9611772894859314e-02</leafValues></_>
    <_>
      <internalNodes>
        0 -1 104400 -9.8110525868833065e-04</internalNodes>
      <leafValues>
        1.8646581470966339e-01 -1.2673586606979370e-01</leafValues></_>
    <_>
      <internalNodes>
        0 -1 2671 2.9043038375675678e-03</internalNodes>
      <leafValues>
        -1.2172850221395493e-01 1.7535823583602905e-01</leafValues></_>
    <_>
      <internalNodes>
        0 -1 111471 3.5489514470100403e-02</internalNodes>
      <leafValues>
        6.6300235688686371e-02 -3.5514983534812927e-01</leafValues></_></weakClassifiers></stage7>
</opencv_storage>
