<?xml version="1.0"?>
<opencv_storage>
<stage13>
  <maxWeakCount>76</maxWeakCount>
  <stageThreshold>-5.9784537553787231e-01</stageThreshold>
  <weakClassifiers>
    <_>
      <internalNodes>
        0 -1 20233 3.2804809510707855e-02</internalNodes>
      <leafValues>
        1.7928287386894226e-01 5.0724637508392334e-01</leafValues></_>
    <_>
      <internalNodes>
        0 -1 115228 -2.0545342937111855e-02</internalNodes>
      <leafValues>
        3.6825105547904968e-01 -4.0898051112890244e-02</leafValues></_>
    <_>
      <internalNodes>
        0 -1 120648 1.8239777535200119e-02</internalNodes>
      <leafValues>
        6.2598027288913727e-02 -2.6723983883857727e-01</leafValues></_>
    <_>
      <internalNodes>
        0 -1 115228 -1.9761983305215836e-02</internalNodes>
      <leafValues>
        -6.4714360237121582e-01 1.0349920950829983e-02</leafValues></_>
    <_>
      <internalNodes>
        0 -1 115228 -1.9325461238622665e-02</internalNodes>
      <leafValues>
        5.6430119276046753e-01 -3.5663226153701544e-03</leafValues></_>
    <_>
      <internalNodes>
        0 -1 116032 4.1922230273485184e-02</internalNodes>
      <leafValues>
        4.6731684356927872e-02 -3.8985693454742432e-01</leafValues></_>
    <_>
      <internalNodes>
        0 -1 28611 -3.2234527170658112e-02</internalNodes>
      <leafValues>
        5.7595181465148926e-01 -3.3895436674356461e-02</leafValues></_>
    <_>
      <internalNodes>
        0 -1 83959 1.5128854662179947e-02</internalNodes>
      <leafValues>
        -5.2757326513528824e-02 4.2874997854232788e-01</leafValues></_>
    <_>
      <internalNodes>
        0 -1 10873 -3.4493787097744644e-04</internalNodes>
      <leafValues>
        -2.1449534595012665e-01 7.3384545743465424e-02</leafValues></_>
    <_>
      <internalNodes>
        0 -1 100545 -1.3962667435407639e-02</internalNodes>
      <leafValues>
        3.9916402101516724e-01 -3.1634543091058731e-02</leafValues></_>
    <_>
      <internalNodes>
        0 -1 18114 -7.4134528636932373e-02</internalNodes>
      <leafValues>
        4.0329462289810181e-01 -5.1825009286403656e-02</leafValues></_>
    <_>
      <internalNodes>
        0 -1 9880 -4.4111236929893494e-03</internalNodes>
      <leafValues>
        -2.7367505431175232e-01 7.0164434611797333e-02</leafValues></_>
    <_>
      <internalNodes>
        0 -1 74208 -1.3504259288311005e-02</internalNodes>
      <leafValues>
        3.3684173226356506e-01 -5.1161505281925201e-02</leafValues></_>
    <_>
      <internalNodes>
        0 -1 28527 -1.7720271716825664e-04</internalNodes>
      <leafValues>
        -1.4865280687808990e-01 1.3581600785255432e-01</leafValues></_>
    <_>
      <internalNodes>
        0 -1 41645 -8.3557352423667908e-02</internalNodes>
      <leafValues>
        -5.1932317018508911e-01 3.1302351504564285e-02</leafValues></_>
    <_>
      <internalNodes>
        0 -1 120499 -2.2501736879348755e-02</internalNodes>
      <leafValues>
        -6.6292631626129150e-01 3.0102649703621864e-02</leafValues></_>
    <_>
      <internalNodes>
        0 -1 121069 2.1400446072220802e-02</internalNodes>
      <leafValues>
        -5.1067534834146500e-02 3.6557024717330933e-01</leafValues></_>
    <_>
      <internalNodes>
        0 -1 95472 -5.6133433245122433e-03</internalNodes>
      <leafValues>
        4.0473103523254395e-01 -4.9877833575010300e-02</leafValues></_>
    <_>
      <internalNodes>
        0 -1 34750 -1.5317182987928391e-02</internalNodes>
      <leafValues>
        -5.9367841482162476e-01 3.4903675317764282e-02</leafValues></_>
    <_>
      <internalNodes>
        0 -1 119019 -1.8328405916690826e-02</internalNodes>
      <leafValues>
        -4.8917555809020996e-01 4.2822137475013733e-02</leafValues></_>
    <_>
      <internalNodes>
        0 -1 109935 -9.5357157988473773e-04</internalNodes>
      <leafValues>
        2.0703451335430145e-01 -9.9877528846263885e-02</leafValues></_>
    <_>
      <internalNodes>
        0 -1 8320 -1.2065235525369644e-01</internalNodes>
      <leafValues>
        -3.9129424095153809e-01 4.8837609589099884e-02</leafValues></_>
    <_>
      <internalNodes>
        0 -1 55720 1.4839120209217072e-02</internalNodes>
      <leafValues>
        7.8886680305004120e-02 -2.5896877050399780e-01</leafValues></_>
    <_>
      <internalNodes>
        0 -1 32972 9.2416685074567795e-03</internalNodes>
      <leafValues>
        3.5971209406852722e-02 -5.5800223350524902e-01</leafValues></_>
    <_>
      <internalNodes>
        0 -1 110398 -1.0196389630436897e-02</internalNodes>
      <leafValues>
        -4.2040359973907471e-01 4.9459986388683319e-02</leafValues></_>
    <_>
      <internalNodes>
        0 -1 121520 3.6060393904335797e-04</internalNodes>
      <leafValues>
        1.0233405977487564e-01 -1.8752862513065338e-01</leafValues></_>
    <_>
      <internalNodes>
        0 -1 95481 1.0391429997980595e-02</internalNodes>
      <leafValues>
        4.6673536300659180e-02 -4.4117167592048645e-01</leafValues></_>
    <_>
      <internalNodes>
        0 -1 85395 3.4721889533102512e-03</internalNodes>
      <leafValues>
        -8.0396100878715515e-02 2.6677855849266052e-01</leafValues></_>
    <_>
      <internalNodes>
        0 -1 28876 -6.2114605680108070e-04</internalNodes>
      <leafValues>
        -1.7328548431396484e-01 1.2514884769916534e-01</leafValues></_>
    <_>
      <internalNodes>
        0 -1 63266 2.4568315595388412e-02</internalNodes>
      <leafValues>
        -4.4735331088304520e-02 4.9362617731094360e-01</leafValues></_>
    <_>
      <internalNodes>
        0 -1 977 1.6586645506322384e-03</internalNodes>
      <leafValues>
        5.9254925698041916e-02 -3.8604021072387695e-01</leafValues></_>
    <_>
      <internalNodes>
        0 -1 9855 -1.7506761942058802e-03</internalNodes>
      <leafValues>
        -2.8271374106407166e-01 7.0264697074890137e-02</leafValues></_>
    <_>
      <internalNodes>
        0 -1 110362 4.6963733620941639e-03</internalNodes>
      <leafValues>
        -4.2489953339099884e-02 5.3752195835113525e-01</leafValues></_>
    <_>
      <internalNodes>
        0 -1 71355 4.0163934230804443e-02</internalNodes>
      <leafValues>
        3.8884032517671585e-02 -6.2899899482727051e-01</leafValues></_>
    <_>
      <internalNodes>
        0 -1 28525 -6.3974065706133842e-03</internalNodes>
      <leafValues>
        4.9188983440399170e-01 -4.7630790621042252e-02</leafValues></_>
    <_>
      <internalNodes>
        0 -1 18003 -3.1997159123420715e-02</internalNodes>
      <leafValues>
        3.3050319552421570e-01 -5.9586450457572937e-02</leafValues></_>
    <_>
      <internalNodes>
        0 -1 124813 -2.2118952125310898e-02</internalNodes>
      <leafValues>
        6.5334612131118774e-01 -3.2400824129581451e-02</leafValues></_>
    <_>
      <internalNodes>
        0 -1 592 8.8439539074897766e-02</internalNodes>
      <leafValues>
        7.1735382080078125e-02 -2.9815164208412170e-01</leafValues></_>
    <_>
      <internalNodes>
        0 -1 2462 6.7509140353649855e-04</internalNodes>
      <leafValues>
        -1.5024498105049133e-01 1.7893268167972565e-01</leafValues></_>
    <_>
      <internalNodes>
        0 -1 103392 5.5910907685756683e-03</internalNodes>
      <leafValues>
        -6.8063944578170776e-02 3.0232769250869751e-01</leafValues></_>
    <_>
      <internalNodes>
        0 -1 100302 -8.0135405063629150e-02</internalNodes>
      <leafValues>
        4.6377235651016235e-01 -4.0556311607360840e-02</leafValues></_>
    <_>
      <internalNodes>
        0 -1 87607 -1.1310216505080462e-03</internalNodes>
      <leafValues>
        -2.6096311211585999e-01 8.8851109147071838e-02</leafValues></_>
    <_>
      <internalNodes>
        0 -1 72894 -2.2736005485057831e-02</internalNodes>
      <leafValues>
        4.4572523236274719e-01 -4.6826738864183426e-02</leafValues></_>
    <_>
      <internalNodes>
        0 -1 57170 -3.9134841412305832e-02</internalNodes>
      <leafValues>
        -2.4526266753673553e-01 7.9858109354972839e-02</leafValues></_>
    <_>
      <internalNodes>
        0 -1 39706 -8.2950666546821594e-02</internalNodes>
      <leafValues>
        1.6832570731639862e-01 -1.2284325808286667e-01</leafValues></_>
    <_>
      <internalNodes>
        0 -1 43593 3.7637691944837570e-02</internalNodes>
      <leafValues>
        -3.9318472146987915e-02 4.9034568667411804e-01</leafValues></_>
    <_>
      <internalNodes>
        0 -1 124884 3.3472196082584560e-04</internalNodes>
      <leafValues>
        1.2833470106124878e-01 -1.6185745596885681e-01</leafValues></_>
    <_>
      <internalNodes>
        0 -1 56227 -6.7095260601490736e-04</internalNodes>
      <leafValues>
        1.5015694499015808e-01 -1.4305770397186279e-01</leafValues></_>
    <_>
      <internalNodes>
        0 -1 101014 -5.7238927111029625e-03</internalNodes>
      <leafValues>
        4.2800006270408630e-01 -4.5652709901332855e-02</leafValues></_>
    <_>
      <internalNodes>
        0 -1 121306 6.7102245520800352e-04</internalNodes>
      <leafValues>
        1.0618419945240021e-01 -2.0680312812328339e-01</leafValues></_>
    <_>
      <internalNodes>
        0 -1 74597 -1.0342366993427277e-02</internalNodes>
      <leafValues>
        4.8315879702568054e-01 -4.3960005044937134e-02</leafValues></_>
    <_>
      <internalNodes>
        0 -1 122746 4.7539770603179932e-03</internalNodes>
      <leafValues>
        -9.1554187238216400e-02 2.1611252427101135e-01</leafValues></_>
    <_>
      <internalNodes>
        0 -1 37764 -5.1097688265144825e-03</internalNodes>
      <leafValues>
        5.3968071937561035e-01 -3.3845592290163040e-02</leafValues></_>
    <_>
      <internalNodes>
        0 -1 9680 -1.7003171145915985e-02</internalNodes>
      <leafValues>
        3.7718573212623596e-01 -4.9371641129255295e-02</leafValues></_>
    <_>
      <internalNodes>
        0 -1 1188 -5.2678119391202927e-03</internalNodes>
      <leafValues>
        1.8843519687652588e-01 -1.0235951095819473e-01</leafValues></_>
    <_>
      <internalNodes>
        0 -1 30650 -2.4183951318264008e-03</internalNodes>
      <leafValues>
        1.6057094931602478e-01 -1.4875273406505585e-01</leafValues></_>
    <_>
      <internalNodes>
        0 -1 75067 2.9022447764873505e-02</internalNodes>
      <leafValues>
        -2.6239238679409027e-02 7.2043907642364502e-01</leafValues></_>
    <_>
      <internalNodes>
        0 -1 119772 6.2970370054244995e-02</internalNodes>
      <leafValues>
        -2.2665962576866150e-02 7.2428137063980103e-01</leafValues></_>
    <_>
      <internalNodes>
        0 -1 122285 -5.4689338430762291e-03</internalNodes>
      <leafValues>
        4.2550867795944214e-01 -4.5610953122377396e-02</leafValues></_>
    <_>
      <internalNodes>
        0 -1 121389 1.8310165032744408e-03</internalNodes>
      <leafValues>
        -7.1279063820838928e-02 2.9532256722450256e-01</leafValues></_>
    <_>
      <internalNodes>
        0 -1 113384 -3.0029136687517166e-02</internalNodes>
      <leafValues>
        8.7143737077713013e-01 -2.4245118722319603e-02</leafValues></_>
    <_>
      <internalNodes>
        0 -1 64537 3.2259486615657806e-02</internalNodes>
      <leafValues>
        3.7738453596830368e-02 -6.8301343917846680e-01</leafValues></_>
    <_>
      <internalNodes>
        0 -1 14603 -2.4731844663619995e-02</internalNodes>
      <leafValues>
        6.1398977041244507e-01 -3.5276703536510468e-02</leafValues></_>
    <_>
      <internalNodes>
        0 -1 115156 -1.3484301045536995e-02</internalNodes>
      <leafValues>
        3.5251748561859131e-01 -5.4750528186559677e-02</leafValues></_>
    <_>
      <internalNodes>
        0 -1 9347 9.8840193822979927e-03</internalNodes>
      <leafValues>
        3.4686397761106491e-02 -6.3990867137908936e-01</leafValues></_>
    <_>
      <internalNodes>
        0 -1 106675 5.1258166786283255e-04</internalNodes>
      <leafValues>
        1.1354026943445206e-01 -1.7764757573604584e-01</leafValues></_>
    <_>
      <internalNodes>
        0 -1 100150 -1.2528884410858154e-01</internalNodes>
      <leafValues>
        -7.2284466028213501e-01 2.7793016284704208e-02</leafValues></_>
    <_>
      <internalNodes>
        0 -1 121897 -5.7684667408466339e-02</internalNodes>
      <leafValues>
        5.7067328691482544e-01 -3.6179818212985992e-02</leafValues></_>
    <_>
      <internalNodes>
        0 -1 61670 -5.4307594895362854e-02</internalNodes>
      <leafValues>
        2.8587982058525085e-01 -7.4786074459552765e-02</leafValues></_>
    <_>
      <internalNodes>
        0 -1 114616 1.4107437804341316e-02</internalNodes>
      <leafValues>
        3.7633530795574188e-02 -5.8398520946502686e-01</leafValues></_>
    <_>
      <internalNodes>
        0 -1 98037 -1.7465585842728615e-02</internalNodes>
      <leafValues>
        1.9368456304073334e-01 -1.0548716038465500e-01</leafValues></_>
    <_>
      <internalNodes>
        0 -1 100173 -9.5916494727134705e-02</internalNodes>
      <leafValues>
        -9.4625192880630493e-01 2.5841241702437401e-02</leafValues></_>
    <_>
      <internalNodes>
        0 -1 93182 -9.1357551515102386e-02</internalNodes>
      <leafValues>
        7.5134253501892090e-01 -3.8822300732135773e-02</leafValues></_>
    <_>
      <internalNodes>
        0 -1 105348 -3.5249195061624050e-03</internalNodes>
      <leafValues>
        4.2382493615150452e-01 -4.6884588897228241e-02</leafValues></_>
    <_>
      <internalNodes>
        0 -1 26048 5.6509398855268955e-03</internalNodes>
      <leafValues>
        -4.6413794159889221e-02 4.6467173099517822e-01</leafValues></_>
    <_>
      <internalNodes>
        0 -1 5754 1.2390899471938610e-02</internalNodes>
      <leafValues>
        -3.3756963908672333e-02 5.5392962694168091e-01</leafValues></_></weakClassifiers></stage13>
</opencv_storage>
