<?xml version="1.0"?>
<opencv_storage>
<stage11>
  <maxWeakCount>75</maxWeakCount>
  <stageThreshold>-7.4251300096511841e-01</stageThreshold>
  <weakClassifiers>
    <_>
      <internalNodes>
        0 -1 51160 -4.8391390591859818e-02</internalNodes>
      <leafValues>
        -3.6986300349235535e-01 2.7963325381278992e-01</leafValues></_>
    <_>
      <internalNodes>
        0 -1 85042 -2.6111891493201256e-03</internalNodes>
      <leafValues>
        2.9005014896392822e-01 -5.7558771222829819e-02</leafValues></_>
    <_>
      <internalNodes>
        0 -1 38232 -5.0066083669662476e-02</internalNodes>
      <leafValues>
        -3.8926926255226135e-01 3.6446977406740189e-02</leafValues></_>
    <_>
      <internalNodes>
        0 -1 120184 -6.5162051469087601e-03</internalNodes>
      <leafValues>
        2.5306698679924011e-01 -8.8410891592502594e-02</leafValues></_>
    <_>
      <internalNodes>
        0 -1 28125 -9.8128765821456909e-03</internalNodes>
      <leafValues>
        3.1079277396202087e-01 -9.0579792857170105e-02</leafValues></_>
    <_>
      <internalNodes>
        0 -1 62693 6.3755577430129051e-03</internalNodes>
      <leafValues>
        -1.6306129097938538e-01 1.7896510660648346e-01</leafValues></_>
    <_>
      <internalNodes>
        0 -1 101551 -4.6395673416554928e-03</internalNodes>
      <leafValues>
        5.1437658071517944e-01 -2.7859473600983620e-02</leafValues></_>
    <_>
      <internalNodes>
        0 -1 0 -2.8282718267291784e-04</internalNodes>
      <leafValues>
        -2.1342635154724121e-01 1.0635018348693848e-01</leafValues></_>
    <_>
      <internalNodes>
        0 -1 98823 2.9338169842958450e-03</internalNodes>
      <leafValues>
        -7.5044646859169006e-02 3.3366483449935913e-01</leafValues></_>
    <_>
      <internalNodes>
        0 -1 98823 -2.7258163318037987e-03</internalNodes>
      <leafValues>
        3.0556043982505798e-01 -8.1258796155452728e-02</leafValues></_>
    <_>
      <internalNodes>
        0 -1 47700 -2.2802729159593582e-02</internalNodes>
      <leafValues>
        5.8609843254089355e-01 -3.0811227858066559e-02</leafValues></_>
    <_>
      <internalNodes>
        0 -1 121655 1.1398117989301682e-02</internalNodes>
      <leafValues>
        -4.6885244548320770e-02 4.9869140982627869e-01</leafValues></_>
    <_>
      <internalNodes>
        0 -1 60170 4.9441140145063400e-03</internalNodes>
      <leafValues>
        -3.1017966568470001e-02 5.4442799091339111e-01</leafValues></_>
    <_>
      <internalNodes>
        0 -1 85397 1.6801101155579090e-03</internalNodes>
      <leafValues>
        -1.1505012214183807e-01 2.2121015191078186e-01</leafValues></_>
    <_>
      <internalNodes>
        0 -1 125198 6.0749473050236702e-04</internalNodes>
      <leafValues>
        1.0370909422636032e-01 -2.3060725629329681e-01</leafValues></_>
    <_>
      <internalNodes>
        0 -1 78355 2.8245210647583008e-02</internalNodes>
      <leafValues>
        6.4400933682918549e-02 -3.5564631223678589e-01</leafValues></_>
    <_>
      <internalNodes>
        0 -1 123600 -1.6365345567464828e-02</internalNodes>
      <leafValues>
        -3.9985102415084839e-01 6.0775209218263626e-02</leafValues></_>
    <_>
      <internalNodes>
        0 -1 79961 2.7832277119159698e-03</internalNodes>
      <leafValues>
        -5.3865414112806320e-02 3.9629453420639038e-01</leafValues></_>
    <_>
      <internalNodes>
        0 -1 112894 -1.1006726883351803e-02</internalNodes>
      <leafValues>
        -2.5599876046180725e-01 8.7533526122570038e-02</leafValues></_>
    <_>
      <internalNodes>
        0 -1 124304 5.1571223884820938e-03</internalNodes>
      <leafValues>
        -4.0210574865341187e-02 5.6284636259078979e-01</leafValues></_>
    <_>
      <internalNodes>
        0 -1 83243 -4.7194309532642365e-02</internalNodes>
      <leafValues>
        -6.7665773630142212e-01 3.5406336188316345e-02</leafValues></_>
    <_>
      <internalNodes>
        0 -1 50317 -4.6854373067617416e-03</internalNodes>
      <leafValues>
        4.6813789010047913e-01 -4.4266968965530396e-02</leafValues></_>
    <_>
      <internalNodes>
        0 -1 61830 3.5434409976005554e-02</internalNodes>
      <leafValues>
        -2.7207892388105392e-02 7.0109415054321289e-01</leafValues></_>
    <_>
      <internalNodes>
        0 -1 111275 -4.6370452037081122e-04</internalNodes>
      <leafValues>
        -1.7776177823543549e-01 1.1770814657211304e-01</leafValues></_>
    <_>
      <internalNodes>
        0 -1 124861 -2.9752738773822784e-02</internalNodes>
      <leafValues>
        4.7030851244926453e-01 -4.5383382588624954e-02</leafValues></_>
    <_>
      <internalNodes>
        0 -1 52768 2.7350760065019131e-03</internalNodes>
      <leafValues>
        -6.8068735301494598e-02 2.9329425096511841e-01</leafValues></_>
    <_>
      <internalNodes>
        0 -1 52764 6.3329758122563362e-03</internalNodes>
      <leafValues>
        -5.2880983799695969e-02 4.5964750647544861e-01</leafValues></_>
    <_>
      <internalNodes>
        0 -1 123889 2.9284259304404259e-02</internalNodes>
      <leafValues>
        -5.6364271789789200e-02 3.4526550769805908e-01</leafValues></_>
    <_>
      <internalNodes>
        0 -1 48542 -4.7890190035104752e-02</internalNodes>
      <leafValues>
        2.7757290005683899e-01 -7.7519595623016357e-02</leafValues></_>
    <_>
      <internalNodes>
        0 -1 1985 7.2939428500831127e-03</internalNodes>
      <leafValues>
        -8.5198625922203064e-02 2.6486122608184814e-01</leafValues></_>
    <_>
      <internalNodes>
        0 -1 22041 -1.2545980513095856e-02</internalNodes>
      <leafValues>
        3.3075636625289917e-01 -6.8005390465259552e-02</leafValues></_>
    <_>
      <internalNodes>
        0 -1 54874 -1.3907145708799362e-02</internalNodes>
      <leafValues>
        3.0319875478744507e-01 -7.4096940457820892e-02</leafValues></_>
    <_>
      <internalNodes>
        0 -1 36680 1.2313618324697018e-02</internalNodes>
      <leafValues>
        -7.0951029658317566e-02 3.9505612850189209e-01</leafValues></_>
    <_>
      <internalNodes>
        0 -1 31710 -4.1324868798255920e-03</internalNodes>
      <leafValues>
        2.4020789563655853e-01 -9.7129739820957184e-02</leafValues></_>
    <_>
      <internalNodes>
        0 -1 13479 4.8060856759548187e-02</internalNodes>
      <leafValues>
        5.0601772964000702e-02 -5.3280955553054810e-01</leafValues></_>
    <_>
      <internalNodes>
        0 -1 33554 -5.0521441735327244e-03</internalNodes>
      <leafValues>
        -4.0639260411262512e-01 6.0633502900600433e-02</leafValues></_>
    <_>
      <internalNodes>
        0 -1 124805 -2.8801998123526573e-03</internalNodes>
      <leafValues>
        -3.3283907175064087e-01 7.0483870804309845e-02</leafValues></_>
    <_>
      <internalNodes>
        0 -1 96992 -4.0781730785965919e-03</internalNodes>
      <leafValues>
        3.7592053413391113e-01 -7.3975019156932831e-02</leafValues></_>
    <_>
      <internalNodes>
        0 -1 124804 8.3259912207722664e-04</internalNodes>
      <leafValues>
        9.3985080718994141e-02 -2.4819652736186981e-01</leafValues></_>
    <_>
      <internalNodes>
        0 -1 8962 3.0579585582017899e-03</internalNodes>
      <leafValues>
        -1.4944314956665039e-01 1.6662345826625824e-01</leafValues></_>
    <_>
      <internalNodes>
        0 -1 44710 1.8627060577273369e-02</internalNodes>
      <leafValues>
        -9.8383389413356781e-02 2.1791209280490875e-01</leafValues></_>
    <_>
      <internalNodes>
        0 -1 115055 2.1458003669977188e-02</internalNodes>
      <leafValues>
        9.9030412733554840e-02 -2.4607083201408386e-01</leafValues></_>
    <_>
      <internalNodes>
        0 -1 27229 -2.9307466745376587e-01</internalNodes>
      <leafValues>
        5.0238680839538574e-01 -4.2459107935428619e-02</leafValues></_>
    <_>
      <internalNodes>
        0 -1 29534 1.6755241900682449e-02</internalNodes>
      <leafValues>
        -9.1396704316139221e-02 2.3022580146789551e-01</leafValues></_>
    <_>
      <internalNodes>
        0 -1 16886 4.3551720678806305e-02</internalNodes>
      <leafValues>
        4.9750305712223053e-02 -4.4798269867897034e-01</leafValues></_>
    <_>
      <internalNodes>
        0 -1 20301 4.9891015514731407e-03</internalNodes>
      <leafValues>
        -4.0314383804798126e-02 6.0250425338745117e-01</leafValues></_>
    <_>
      <internalNodes>
        0 -1 105060 3.1057521700859070e-03</internalNodes>
      <leafValues>
        -5.4057184606790543e-02 3.9995512366294861e-01</leafValues></_>
    <_>
      <internalNodes>
        0 -1 37760 -5.1037613302469254e-03</internalNodes>
      <leafValues>
        6.3068330287933350e-01 -3.5901889204978943e-02</leafValues></_>
    <_>
      <internalNodes>
        0 -1 56977 -6.3708618283271790e-02</internalNodes>
      <leafValues>
        -5.6821882724761963e-01 4.4260714203119278e-02</leafValues></_>
    <_>
      <internalNodes>
        0 -1 37786 1.8654730170965195e-02</internalNodes>
      <leafValues>
        5.2822865545749664e-02 -4.2263555526733398e-01</leafValues></_>
    <_>
      <internalNodes>
        0 -1 44254 1.5034091472625732e-01</internalNodes>
      <leafValues>
        -3.0256370082497597e-02 7.4922871589660645e-01</leafValues></_>
    <_>
      <internalNodes>
        0 -1 27476 -2.7584936469793320e-02</internalNodes>
      <leafValues>
        -3.3779501914978027e-01 8.3095334470272064e-02</leafValues></_>
    <_>
      <internalNodes>
        0 -1 124738 1.4698032464366406e-04</internalNodes>
      <leafValues>
        -1.3751231133937836e-01 1.7060203850269318e-01</leafValues></_>
    <_>
      <internalNodes>
        0 -1 96549 -8.3221495151519775e-03</internalNodes>
      <leafValues>
        3.5449832677841187e-01 -6.2245424836874008e-02</leafValues></_>
    <_>
      <internalNodes>
        0 -1 124052 -1.8869912251830101e-02</internalNodes>
      <leafValues>
        -6.2428230047225952e-01 3.3358886837959290e-02</leafValues></_>
    <_>
      <internalNodes>
        0 -1 114959 -1.8327616155147552e-02</internalNodes>
      <leafValues>
        3.3816799521446228e-01 -6.8155877292156219e-02</leafValues></_>
    <_>
      <internalNodes>
        0 -1 72040 1.1487909359857440e-03</internalNodes>
      <leafValues>
        -1.0625290125608444e-01 2.0314212143421173e-01</leafValues></_>
    <_>
      <internalNodes>
        0 -1 48595 1.0335673391819000e-01</internalNodes>
      <leafValues>
        -3.9716351777315140e-02 6.3806283473968506e-01</leafValues></_>
    <_>
      <internalNodes>
        0 -1 87611 -6.4510782249271870e-03</internalNodes>
      <leafValues>
        -5.4074126482009888e-01 4.7141380608081818e-02</leafValues></_>
    <_>
      <internalNodes>
        0 -1 64186 -1.2076126411557198e-02</internalNodes>
      <leafValues>
        -4.2601913213729858e-01 4.6927403658628464e-02</leafValues></_>
    <_>
      <internalNodes>
        0 -1 10441 -2.6041869074106216e-02</internalNodes>
      <leafValues>
        3.7780365347862244e-01 -6.7378126084804535e-02</leafValues></_>
    <_>
      <internalNodes>
        0 -1 315 -1.5595059841871262e-02</internalNodes>
      <leafValues>
        2.8754350543022156e-01 -7.9370632767677307e-02</leafValues></_>
    <_>
      <internalNodes>
        0 -1 1450 -1.4004495926201344e-02</internalNodes>
      <leafValues>
        2.1017166972160339e-01 -1.1279789358377457e-01</leafValues></_>
    <_>
      <internalNodes>
        0 -1 20411 -1.9059818238019943e-02</internalNodes>
      <leafValues>
        -6.8323189020156860e-01 3.5115849226713181e-02</leafValues></_>
    <_>
      <internalNodes>
        0 -1 91019 -2.4117545690387487e-03</internalNodes>
      <leafValues>
        2.3302647471427917e-01 -1.0089878737926483e-01</leafValues></_>
    <_>
      <internalNodes>
        0 -1 113643 4.7097310423851013e-02</internalNodes>
      <leafValues>
        3.5560347139835358e-02 -6.8090713024139404e-01</leafValues></_>
    <_>
      <internalNodes>
        0 -1 25571 -1.2570045888423920e-02</internalNodes>
      <leafValues>
        3.4045058488845825e-01 -7.6610192656517029e-02</leafValues></_>
    <_>
      <internalNodes>
        0 -1 114850 -1.2230291031301022e-03</internalNodes>
      <leafValues>
        -2.6123645901679993e-01 9.3697279691696167e-02</leafValues></_>
    <_>
      <internalNodes>
        0 -1 105539 -3.4275420010089874e-02</internalNodes>
      <leafValues>
        4.5336046814918518e-01 -5.5882003158330917e-02</leafValues></_>
    <_>
      <internalNodes>
        0 -1 86952 5.9590613091131672e-05</internalNodes>
      <leafValues>
        1.6481752693653107e-01 -1.3706699013710022e-01</leafValues></_>
    <_>
      <internalNodes>
        0 -1 64905 6.6457241773605347e-02</internalNodes>
      <leafValues>
        6.7404128611087799e-02 -3.3038431406021118e-01</leafValues></_>
    <_>
      <internalNodes>
        0 -1 30735 -8.4915887564420700e-03</internalNodes>
      <leafValues>
        -3.1842812895774841e-01 7.7836558222770691e-02</leafValues></_>
    <_>
      <internalNodes>
        0 -1 25747 -4.9132369458675385e-02</internalNodes>
      <leafValues>
        -7.6370453834533691e-01 3.0272878706455231e-02</leafValues></_>
    <_>
      <internalNodes>
        0 -1 9047 -5.6719621643424034e-03</internalNodes>
      <leafValues>
        7.4870526790618896e-01 -3.5306185483932495e-02</leafValues></_>
    <_>
      <internalNodes>
        0 -1 87738 8.6299388203769922e-04</internalNodes>
      <leafValues>
        1.1117136478424072e-01 -2.0656660199165344e-01</leafValues></_></weakClassifiers></stage11>
</opencv_storage>
